SVM-light Version V6.02
2 # kernel type
3 # kernel parameter -d 
1 # kernel parameter -g 
1 # kernel parameter -s 
1 # kernel parameter -r 
empty# kernel parameter -u 
5 # highest feature index 
5109 # number of training documents 
670 # number of support vectors plus 1 
0.75855132 # threshold b, each following line is a SV (starting with alpha*y)
-0.36699476760487926 1:0.625 2:0.88888901 3:0.68953103 4:0.26923099 5:0.1 # 122;1041
0.8116116148396797 1:0.5625 2:1 3:0.604693 4:0 5:0 # 103;1039
-0.8116116148396797 1:0.0625 2:1 3:0.74187702 4:0 5:0 # 219;1292
0.8116116148396797 1:0.125 2:0.33333299 3:0.185921 4:0.115385 5:0.1 # 107;1319
-0.8116116148396797 1:0.8125 2:1 3:0.86101103 4:0.153846 5:0.1 # 178;1288
0.8116116148396797 1:0.1875 2:0.444444 3:0.66065001 4:0.23076899 5:0.1 # 236;1222
-0.8116116148396797 1:0.375 2:0.111111 3:0.402527 4:0 5:0 # 238;1281
0.8116116148396797 1:0.1875 2:0.444444 3:0.185921 4:0.115385 5:0.1 # 107;1222
-0.8116116148396797 1:0.1875 2:0.444444 3:0.12635399 4:0.076923102 5:0 # 191;1073
0.8116116148396797 1:0.875 2:1 3:0.86101103 4:0.115385 5:0 # 178;1293
-0.8116116148396797 1:0.0625 2:1 3:0.67509001 4:0.23076899 5:0.30000001 # 272;1289
0.8116116148396797 1:0.3125 2:0 3:0.53790599 4:0.038461499 5:0.1 # 104;1318
-0.8116116148396797 1:0.125 2:0.111111 3:0.057761699 4:0.076923102 5:0 # 181;1278
0.8116116148396797 1:0.4375 2:1 3:0.803249 4:0.23076899 5:0.2 # 175;1293
-0.8116116148396797 1:0.25 2:1 3:0.36462101 4:0.42307699 5:0.1 # 228;1048
0.8116116148396797 1:0.25 2:0 3:0.53790599 4:0.038461499 5:0.1 # 104;1283
-0.8116116148396797 1:0.4375 2:0 3:0.84837502 4:0.346154 5:0.2 # 280;1318
0.8116116148396797 1:0.25 2:1 3:0.43140799 4:0.076923102 5:0 # 265;1039
-0.8116116148396797 1:0.1875 2:0.111111 3:0.25812301 4:0.19230799 5:0.2 # 143;1278
0.8116116148396797 1:0.4375 2:1 3:0.86101103 4:0.115385 5:0 # 178;1057
-0.8116116148396797 1:0.3125 2:1 3:0.52166098 4:0.5 5:0 # 148;1017
0.8116116148396797 1:0.0625 2:0 3:0.0216607 4:0 5:0 # 222;1001
-0.36001894086193942 1:0.0625 2:0 3:0.0198556 4:0 5:0 # 242;1001
0.8116116148396797 1:0.25 2:1 3:0.70036101 4:0.30769199 5:0.30000001 # 183;1057
-0.8116116148396797 1:0.8125 2:1 3:0.86101103 4:0.153846 5:0.1 # 178;1292
0.8116116148396797 1:0.125 2:0 3:0.135379 4:0.115385 5:0 # 271;1283
-0.8116116148396797 1:0.3125 2:0.111111 3:0.53610098 4:0.153846 5:0 # 297;1277
0.8116116148396797 1:0.75 2:0.88888901 3:0.84837502 4:0.23076899 5:0 # 280;1081
-0.8116116148396797 1:0.1875 2:0.444444 3:0.12635399 4:0.076923102 5:0 # 191;1074
0.8116116148396797 1:0.1875 2:0 3:0.12635399 4:0.038461499 5:0 # 191;1318
-0.8116116148396797 1:0.125 2:0 3:0.074007198 4:0.038461499 5:0.1 # 174;1283
0.8116116148396797 1:0.4375 2:1 3:0.70036101 4:0.26923099 5:0.2 # 183;1013
-0.8116116148396797 1:0.5625 2:1 3:0.84837502 4:0.346154 5:0.2 # 280;1284
0.8116116148396797 1:0.5 2:0 3:0.88808697 4:0.76923102 5:0.30000001 # 167;1283
-0.8116116148396797 1:0.5 2:0 3:0.75451303 4:0.69230801 5:0.30000001 # 196;1001
0.8116116148396797 1:0.5625 2:1 3:0.67509001 4:0.19230799 5:0.2 # 272;1013
-0.8116116148396797 1:0.3125 2:1 3:0.420578 4:0.153846 5:0 # 144;1034
0.8116116148396797 1:0.125 2:0 3:0.18411601 4:0.115385 5:0.1 # 241;1318
-0.8116116148396797 1:0.1875 2:0.111111 3:0.460289 4:0.30769199 5:0.1 # 204;1276
0.8116116148396797 1:0.625 2:1 3:0.803249 4:0.19230799 5:0 # 175;1039
-0.8116116148396797 1:0.5625 2:1 3:0.84837502 4:0.346154 5:0.2 # 280;1291
0.8116116148396797 1:0.1875 2:0.111111 3:0.057761699 4:0.038461499 5:0.1 # 181;1067
-0.8116116148396797 1:0.125 2:0.111111 3:0.057761699 4:0.076923102 5:0 # 181;1281
0.8116116148396797 1:0.6875 2:1 3:0.74187702 4:0.5 5:0.30000001 # 115;1013
-0.8116116148396797 1:0.6875 2:0.88888901 3:0.606498 4:0.53846198 5:0.40000001 # 145;1040
0.8116116148396797 1:0.125 2:0.111111 3:0.12635399 4:0.038461499 5:0 # 191;1277
-0.8116116148396797 1:0.3125 2:1 3:0.49639001 4:0.23076899 5:0 # 282;1055
0.8116116148396797 1:0.6875 2:0.88888901 3:0.88808697 4:0.73076898 5:0.5 # 167;1084
0.8116116148396797 1:0.4375 2:0 3:0.56859201 4:0.53846198 5:0.2 # 194;1001
0.8116116148396797 1:0.1875 2:0.111111 3:0.097472899 4:0 5:0 # 278;1277
-0.8116116148396797 1:0.1875 2:0.111111 3:0.19133601 4:0.038461499 5:0 # 160;1067
0.8116116148396797 1:0.4375 2:1 3:0.76534301 4:0.615385 5:0.60000002 # 151;1293
-9.0075603296213558e-006 1:0.1875 2:1 3:0.447653 4:0.153846 5:0.1 # 270;1004
0.8116116148396797 1:0.1875 2:0 3:0.19133601 4:0 5:0 # 160;1283
-0.8116116148396797 1:0.375 2:0 3:0.35559601 4:0 5:0 # 179;1001
0.8116116148396797 1:0.5625 2:1 3:0.75451303 4:0.65384603 5:0.60000002 # 196;1293
-0.8116116148396797 1:0.4375 2:1 3:0.55776203 4:0.65384603 5:0.40000001 # 264;1052
0.8116116148396797 1:0.4375 2:0 3:0.59747303 4:0.115385 5:0.1 # 281;1283
-0.8116116148396797 1:0.375 2:0 3:0.57761699 4:0 5:0 # 117;1283
0.8116116148396797 1:0.625 2:1 3:0.88808697 4:0.73076898 5:0.5 # 167;1013
-0.8116116148396797 1:0.5625 2:1 3:0.74187702 4:0.57692301 5:0.5 # 115;1007
0.8116116148396797 1:0.1875 2:0 3:0.447653 4:0.115385 5:0 # 270;1283
-0.8116116148396797 1:0.25 2:0.111111 3:0.49639001 4:0.23076899 5:0.1 # 282;1277
0.8116116148396797 1:0.5 2:1 3:0.74187702 4:0.5 5:0.5 # 115;1293
-0.8116116148396797 1:0.5625 2:1 3:0.74187702 4:0.57692301 5:0.5 # 115;1008
0.8116116148396797 1:0.125 2:0.111111 3:0.43140799 4:0.076923102 5:0 # 265;1281
-0.47819795860674003 1:0.375 2:1 3:0.88808697 4:0.80769199 5:0.40000001 # 167;1288
0.8116116148396797 1:0.4375 2:1 3:0.71660602 4:0.73076898 5:0.40000001 # 177;1293
-0.5264179095853303 1:0.375 2:1 3:0.88808697 4:0.80769199 5:0.40000001 # 167;1284
0.8116116148396797 1:0.1875 2:0.111111 3:0.13718399 4:0.115385 5:0 # 147;1281
-0.8116116148396797 1:0.1875 2:0.111111 3:0.079422399 4:0.038461499 5:0.1 # 243;1234
0.8116116148396797 1:0.4375 2:1 3:0.88808697 4:0.76923102 5:0.30000001 # 167;1039
-0.8116116148396797 1:0.3125 2:1 3:0.76534301 4:0.65384603 5:0.2 # 151;1025
0.8116116148396797 1:0.125 2:0.222222 3:0.057761699 4:0.038461499 5:0.1 # 181;1319
-0.8116116148396797 1:0.4375 2:0.33333299 3:0.36281601 4:0 5:0 # 254;1316
0.8116116148396797 1:0.25 2:1 3:0.71660602 4:0.73076898 5:0.2 # 177;1039
-0.8116116148396797 1:0.4375 2:1 3:0.55776203 4:0.65384603 5:0.40000001 # 264;1056
0.8116116148396797 1:0.125 2:0 3:0.227437 4:0.19230799 5:0.1 # 225;1001
-0.8116116148396797 1:0.25 2:0 3:0.34837499 4:0.076923102 5:0 # 231;1001
0.8116116148396797 1:0.4375 2:1 3:0.55595702 4:0.5 5:0.40000001 # 291;1057
-0.8116116148396797 1:0.0625 2:0 3:0.081227399 4:0.076923102 5:0 # 111;1318
0.8116116148396797 1:0.25 2:0 3:0.31407899 4:0.076923102 5:0 # 289;1283
-0.3956209899152423 1:0.1875 2:0 3:0.34837499 4:0.076923102 5:0 # 231;1283
0.8116116148396797 1:0.375 2:1 3:0.76534301 4:0.615385 5:0.30000001 # 151;1057
-0.8116116148396797 1:0.375 2:1 3:0.74187702 4:0.57692301 5:0.2 # 115;1017
0.8116116148396797 1:0.25 2:0 3:0.31407899 4:0.076923102 5:0 # 289;1001
-0.8116116148396797 1:0.1875 2:0 3:0.31407899 4:0.115385 5:0.1 # 289;1318
0.8116116148396797 1:0.375 2:1 3:0.76534301 4:0.615385 5:0.30000001 # 151;1013
-0.57904659577324524 1:0.4375 2:1 3:0.76534301 4:0.65384603 5:0.40000001 # 151;1005
0.8116116148396797 1:0.1875 2:0 3:0.420578 4:0.115385 5:0.2 # 144;1283
-0.8116116148396797 1:0.1875 2:0 3:0.420578 4:0.153846 5:0.1 # 144;1001
0.8116116148396797 1:0.6875 2:1 3:0.88808697 4:0.69230801 5:0.40000001 # 167;1057
-0.8116116148396797 1:0.5625 2:1 3:0.74187702 4:0.57692301 5:0.5 # 115;1009
0.8116116148396797 1:0.1875 2:0.111111 3:0.31407899 4:0.076923102 5:0 # 289;1277
-0.092252377202801439 1:0.3125 2:1 3:0.76534301 4:0.65384603 5:0.2 # 151;1033
0.8116116148396797 1:0.125 2:1 3:0.55776203 4:0.615385 5:0.5 # 264;1293
-0.8116116148396797 1:0.3125 2:0.444444 3:0.55595702 4:0.57692301 5:0.1 # 291;1201
0.8116116148396797 1:0.25 2:0.111111 3:0.245487 4:0.038461499 5:0 # 193;1067
-0.8116116148396797 1:0.375 2:0 3:0.402527 4:0 5:0 # 238;1001
0.8116116148396797 1:0.25 2:1 3:0.55776203 4:0.615385 5:0.40000001 # 264;1039
-0.49358617236767999 1:0.125 2:0.111111 3:0.057761699 4:0.076923102 5:0.2 # 181;1035
0.8116116148396797 1:0.5625 2:0 3:0.82671499 4:0.115385 5:0 # 200;1318
-0.8116116148396797 1:0.6875 2:0.111111 3:0.86101103 4:0.153846 5:0.1 # 178;1278
0.8116116148396797 1:0.1875 2:1 3:0.56859201 4:0.53846198 5:0.40000001 # 194;1039
-0.8116116148396797 1:0.3125 2:1 3:0.420578 4:0.153846 5:0 # 144;1038
0.8116116148396797 1:0.6875 2:0.111111 3:0.66606498 4:0.115385 5:0.2 # 152;1234
-0.8116116148396797 1:0.5625 2:0.111111 3:0.66606498 4:0.23076899 5:0 # 152;1067
0.8116116148396797 1:0.1875 2:1 3:0.55595702 4:0.53846198 5:0.30000001 # 291;1293
-0.7704863388313663 1:0.375 2:1 3:0.55595702 4:0.57692301 5:0.30000001 # 173;1050
0.8116116148396797 1:0.25 2:0 3:0.82671499 4:0.115385 5:0 # 200;1001
0.8116116148396797 1:0.5625 2:0 3:0.29963899 4:0.19230799 5:0.1 # 301;1001
0.8116116148396797 1:0.25 2:1 3:0.55776203 4:0.615385 5:0.30000001 # 264;1013
-0.8116116148396797 1:0.3125 2:1 3:0.420578 4:0.153846 5:0 # 144;1036
0.8116116148396797 1:0.1875 2:0 3:0.803249 4:0.23076899 5:0 # 175;1001
0.8116116148396797 1:0.75 2:0.111111 3:0.56859201 4:0.46153799 5:0.2 # 194;1277
0.8116116148396797 1:0.375 2:0.88888901 3:0.55776203 4:0.615385 5:0.40000001 # 264;1081
-0.8116116148396797 1:0.4375 2:1 3:0.55776203 4:0.65384603 5:0.40000001 # 264;1049
0.8116116148396797 1:0.5625 2:0.111111 3:0.51263499 4:0 5:0 # 180;1234
-0.8116116148396797 1:0.375 2:0.111111 3:0.34837499 4:0.076923102 5:0 # 231;1281
0.8116116148396797 1:0.1875 2:1 3:0.606498 4:0.5 5:0.2 # 145;1293
-0.71324468548221576 1:0.0625 2:0.88888901 3:0.0216607 4:0.038461499 5:0 # 222;1286
0.8116116148396797 1:0.25 2:0 3:0.25812301 4:0.153846 5:0.1 # 143;1318
-0.8116116148396797 1:0.25 2:0.111111 3:0.185921 4:0.153846 5:0.2 # 107;1233
0.8116116148396797 1:0.4375 2:1 3:0.71660602 4:0.69230801 5:0.2 # 177;1057
-0.8116116148396797 1:0.3125 2:1 3:0.76534301 4:0.65384603 5:0.2 # 151;1030
0.8116116148396797 1:0.1875 2:0.111111 3:0.18411601 4:0.115385 5:0.1 # 241;1281
-0.8116116148396797 1:0.125 2:0.111111 3:0.185921 4:0.153846 5:0 # 107;1276
0.8116116148396797 1:0.25 2:0.88888901 3:0.71660602 4:0.73076898 5:0.2 # 177;1081
-0.8116116148396797 1:0.375 2:1 3:0.88808697 4:0.80769199 5:0.40000001 # 167;1289
0.8116116148396797 1:0.125 2:0.33333299 3:0.081227399 4:0.038461499 5:0 # 111;1319
-0.8116116148396797 1:0.3125 2:1 3:0.56859201 4:0.57692301 5:0.2 # 194;1006
0.8116116148396797 1:0.4375 2:1 3:0.71660602 4:0.69230801 5:0.2 # 177;1013
-0.8116116148396797 1:0.3125 2:1 3:0.76534301 4:0.65384603 5:0.2 # 151;1032
0.8116116148396797 1:0.1875 2:0.111111 3:0.25812301 4:0.153846 5:0.1 # 143;1234
-0.8116116148396797 1:0.375 2:0.111111 3:0.37725601 4:0.076923102 5:0 # 296;1276
0.8116116148396797 1:0.125 2:1 3:0.68953103 4:0.23076899 5:0 # 122;1057
-0.10670976862202142 1:0.375 2:0 3:0.58483797 4:0 5:0 # 110;1318
0.8116116148396797 1:0.5625 2:0.444444 3:0.71660602 4:0.69230801 5:0.60000002 # 177;1222
-0.8116116148396797 1:0.5625 2:0.33333299 3:0.88808697 4:0.80769199 5:0.60000002 # 167;1317
0.8116116148396797 1:0.125 2:0.88888901 3:0.34837499 4:0.038461499 5:0 # 231;1084
-0.75552390925848201 1:0.1875 2:0.88888901 3:0.18411601 4:0.153846 5:0.1 # 241;1002
0.8116116148396797 1:0.4375 2:0 3:0.88808697 4:0.76923102 5:0.5 # 167;1001
-0.8116116148396797 1:0.375 2:0 3:0.76534301 4:0.65384603 5:0.69999999 # 151;1283
0.8116116148396797 1:0.0625 2:1 3:0.081227399 4:0.038461499 5:0 # 111;1013
-0.8116116148396797 1:0.25 2:0.88888901 3:0.18411601 4:0.153846 5:0.1 # 241;1080
0.8116116148396797 1:0.4375 2:0 3:0.75451303 4:0.65384603 5:0.60000002 # 196;1283
-0.8116116148396797 1:0.5 2:0.111111 3:0.75451303 4:0.69230801 5:0.30000001 # 196;1035
0.8116116148396797 1:0.1875 2:1 3:0.074007198 4:0 5:0 # 174;1293
-0.8116116148396797 1:0.3125 2:1 3:0.420578 4:0.153846 5:0 # 144;1033
0.8116116148396797 1:0.375 2:0.111111 3:0.88808697 4:0.76923102 5:0.30000001 # 167;1281
-0.8116116148396797 1:0.375 2:0.111111 3:0.88808697 4:0.80769199 5:0.40000001 # 167;1278
0.8116116148396797 1:0.125 2:0.88888901 3:0.0595668 4:0.038461499 5:0 # 274;1293
-0.8116116148396797 1:0.0625 2:0.88888901 3:0.0216607 4:0.038461499 5:0 # 222;1284
0.8116116148396797 1:0.375 2:0.33333299 3:0.71660602 4:0.69230801 5:0.60000002 # 177;1319
-0.8116116148396797 1:0.5 2:0.33333299 3:0.88808697 4:0.80769199 5:0.60000002 # 167;1316
0.8116116148396797 1:0.125 2:0.88888901 3:0.0595668 4:0.038461499 5:0 # 274;1084
-0.8116116148396797 1:0.25 2:0.88888901 3:0.18411601 4:0.153846 5:0.1 # 241;1003
0.8116116148396797 1:0.5 2:0 3:0.71660602 4:0.69230801 5:0.60000002 # 177;1001
-0.8116116148396797 1:0.5625 2:0.111111 3:0.75451303 4:0.69230801 5:0.69999999 # 196;1278
0.8116116148396797 1:0.1875 2:1 3:0.185921 4:0.115385 5:0.1 # 107;1293
-0.013191206418153738 1:0.0625 2:0.88888901 3:0.0216607 4:0.038461499 5:0 # 222;1285
0.8116116148396797 1:0.4375 2:0.111111 3:0.75451303 4:0.65384603 5:0.60000002 # 196;1234
-0.8116116148396797 1:0.375 2:0.111111 3:0.71660602 4:0.76923102 5:0.5 # 177;1278
0.8116116148396797 1:0.25 2:1 3:0.135379 4:0.076923102 5:0 # 271;1039
-0.047200976310348849 1:0.1875 2:1 3:0.74187702 4:0 5:0 # 219;1048
0.8116116148396797 1:0.25 2:0.111111 3:0.88808697 4:0.76923102 5:0.5 # 167;1067
-0.8116116148396797 1:0.1875 2:0.111111 3:0.88808697 4:0.80769199 5:0.40000001 # 167;1233
0.8116116148396797 1:0.1875 2:0.88888901 3:0.13718399 4:0.115385 5:0 # 147;1084
-0.8116116148396797 1:0.25 2:0.88888901 3:0.18411601 4:0.153846 5:0.1 # 241;1075
0.8116116148396797 1:0.25 2:0 3:0.88808697 4:0.76923102 5:0.30000001 # 167;1318
-0.8116116148396797 1:0.375 2:0.111111 3:0.75451303 4:0.69230801 5:0.30000001 # 196;1276
0.8116116148396797 1:0.25 2:1 3:0.227437 4:0.19230799 5:0.1 # 225;1013
-0.8116116148396797 1:0.3125 2:1 3:0.245487 4:0.076923102 5:0.1 # 193;1048
0.8116116148396797 1:0.5 2:0.111111 3:0.71660602 4:0.69230801 5:0.60000002 # 177;1067
-0.8116116148396797 1:0.5 2:0.111111 3:0.76534301 4:0.65384603 5:0.69999999 # 151;1233
0.8116116148396797 1:0.1875 2:0.77777803 3:0.245487 4:0.038461499 5:0 # 193;1084
-0.78856266891089066 1:0.0625 2:0.77777803 3:0.0595668 4:0.076923102 5:0 # 274;1002
0.8116116148396797 1:0.625 2:0.111111 3:0.76534301 4:0.57692301 5:0.5 # 151;1234
-0.8116116148396797 1:0.625 2:0.111111 3:0.76534301 4:0.65384603 5:0.2 # 151;1276
0.8116116148396797 1:0.125 2:0.66666698 3:0.079422399 4:0 5:0 # 243;1293
-0.8116116148396797 1:0.3125 2:1 3:0.56859201 4:0.57692301 5:0.2 # 194;1008
0.8116116148396797 1:0.75 2:0.111111 3:0.76534301 4:0.57692301 5:0 # 151;1277
-0.8116116148396797 1:0.625 2:0.111111 3:0.803249 4:0.26923099 5:0.30000001 # 175;1278
0.8116116148396797 1:0.125 2:0.88888901 3:0.29963899 4:0.19230799 5:0.1 # 301;1057
-0.8116116148396797 1:0.3125 2:1 3:0.49639001 4:0.23076899 5:0 # 282;1048
0.8116116148396797 1:0.375 2:0 3:0.66606498 4:0.19230799 5:0.40000001 # 152;1283
-0.8116116148396797 1:0.375 2:0 3:0.50721997 4:0.384615 5:0.40000001 # 123;1318
0.8116116148396797 1:0.1875 2:1 3:0.37725601 4:0.384615 5:0 # 150;1013
-0.19889673751196923 1:0.0625 2:1 3:0.38989201 4:0.346154 5:0.2 # 134;1006
0.8116116148396797 1:0.25 2:0 3:0.395307 4:0.19230799 5:0.30000001 # 260;1318
-0.8116116148396797 1:0.5 2:0.33333299 3:0.88808697 4:0.80769199 5:0.60000002 # 167;1315
0.8116116148396797 1:0.375 2:1 3:0.56859201 4:0.53846198 5:0.1 # 194;1013
-0.8116116148396797 1:0.3125 2:1 3:0.52166098 4:0.5 5:0 # 148;1030
0.8116116148396797 1:0.3125 2:0 3:0.74187702 4:0.53846198 5:0.60000002 # 115;1283
-0.8116116148396797 1:0.3125 2:0 3:0.52166098 4:0.5 5:0.60000002 # 148;1283
0.8116116148396797 1:0.25 2:1 3:0.449458 4:0.153846 5:0 # 120;1013
-0.8116116148396797 1:0.3125 2:1 3:0.420578 4:0.153846 5:0 # 144;1017
0.8116116148396797 1:0.25 2:0 3:0.55595702 4:0.53846198 5:0.5 # 173;1001
-0.2785229531034526 1:0.4375 2:0.111111 3:0.76534301 4:0.65384603 5:0.69999999 # 151;1281
0.8116116148396797 1:0.375 2:1 3:0.37725601 4:0.038461499 5:0 # 296;1013
-0.8116116148396797 1:0.125 2:1 3:0.460289 4:0.30769199 5:0.2 # 204;1004
0.8116116148396797 1:0.25 2:0.111111 3:0.88808697 4:0.76923102 5:0.30000001 # 167;1234
-0.8116116148396797 1:0.4375 2:0.111111 3:0.71660602 4:0.76923102 5:0.30000001 # 177;1276
0.8116116148396797 1:0.25 2:1 3:0.25812301 4:0.153846 5:0 # 143;1013
-0.74276868417395292 1:0.1875 2:0.88888901 3:0.18411601 4:0.153846 5:0.1 # 241;1077
0.8116116148396797 1:0.5625 2:0.111111 3:0.71660602 4:0.73076898 5:0.40000001 # 177;1281
-0.8116116148396797 1:0.625 2:0.111111 3:0.56859201 4:0.57692301 5:0.5 # 194;1276
0.8116116148396797 1:0.3125 2:1 3:0.227437 4:0.153846 5:0 # 225;1293
-0.8116116148396797 1:0.3125 2:0 3:0.53610098 4:0.153846 5:0.2 # 297;1318
-0.064189037079949607 1:0.25 2:1 3:0.420578 4:0.153846 5:0 # 144;1030
0.8116116148396797 1:0.5625 2:0 3:0.53610098 4:0.076923102 5:0 # 297;1283
0.8116116148396797 1:0.375 2:1 3:0.53610098 4:0.115385 5:0.1 # 297;1057
-0.10349115761929328 1:0.4375 2:1 3:0.393502 4:0 5:0 # 216;1049
0.8116116148396797 1:0.1875 2:0.111111 3:0.52166098 4:0.46153799 5:0.5 # 148;1281
-0.8116116148396797 1:0.125 2:0 3:0.74187702 4:0.57692301 5:0.1 # 115;1001
0.8116116148396797 1:0.375 2:1 3:0.420578 4:0.115385 5:0.2 # 144;1293
-0.047910851228618823 1:0.125 2:1 3:0.460289 4:0.30769199 5:0.2 # 204;1006
0.8116116148396797 1:0.125 2:0 3:0.66065001 4:0.23076899 5:0.1 # 236;1283
-0.8116116148396797 1:0.3125 2:0.111111 3:0.66065001 4:0.26923099 5:0.2 # 236;1281
0.8116116148396797 1:0.1875 2:1 3:0.37725601 4:0.384615 5:0.2 # 150;1293
-0.106047911198627 1:0.25 2:1 3:0.36462101 4:0.42307699 5:0.1 # 228;1052
0.8116116148396797 1:0.625 2:0 3:0.803249 4:0.23076899 5:0.2 # 175;1283
-0.8116116148396797 1:0.625 2:0.111111 3:0.803249 4:0.26923099 5:0.30000001 # 175;1281
0.8116116148396797 1:0.125 2:1 3:0.34296 4:0.30769199 5:0.1 # 128;1057
-0.0027124151325805812 1:0.125 2:1 3:0.447653 4:0.153846 5:0.1 # 270;1006
0.8116116148396797 1:0.625 2:0 3:0.803249 4:0.23076899 5:0.2 # 175;1318
-0.8116116148396797 1:0.5625 2:0 3:0.86101103 4:0.153846 5:0.2 # 178;1001
0.8116116148396797 1:0.1875 2:1 3:0.36462101 4:0.384615 5:0 # 228;1013
-0.8116116148396797 1:0.25 2:1 3:0.38989201 4:0.346154 5:0 # 134;1017
0.8116116148396797 1:0.5 2:0.33333299 3:0.86101103 4:0.115385 5:0.1 # 178;1319
-0.8116116148396797 1:0.625 2:0.111111 3:0.86101103 4:0.153846 5:0.1 # 178;1281
0.8116116148396797 1:0.1875 2:1 3:0.34296 4:0.30769199 5:0 # 128;1039
-0.8116116148396797 1:0.3125 2:1 3:0.420578 4:0.153846 5:0 # 144;1039
0.8116116148396797 1:0.6875 2:0 3:0.76534301 4:0.5 5:0.30000001 # 151;1318
-0.8116116148396797 1:0.6875 2:0.33333299 3:0.74187702 4:0.57692301 5:0.1 # 115;1317
0.8116116148396797 1:0.25 2:1 3:0.447653 4:0.115385 5:0.1 # 270;1039
-0.73778566282329483 1:0.25 2:1 3:0.36462101 4:0.42307699 5:0.1 # 228;1054
0.8116116148396797 1:0.8125 2:0.33333299 3:0.88808697 4:0.65384603 5:0.2 # 167;1319
-0.8116116148396797 1:0.625 2:0.33333299 3:0.74187702 4:0.57692301 5:0.1 # 115;1315
0.8116116148396797 1:0.1875 2:0.88888901 3:0.227437 4:0.19230799 5:0.1 # 225;1084
-0.8116116148396797 1:0.125 2:1 3:0.49639001 4:0.23076899 5:0.2 # 282;1285
0.8116116148396797 1:0.375 2:0 3:0.70036101 4:0.30769199 5:0 # 183;1318
-0.8116116148396797 1:0.3125 2:0 3:0.68953103 4:0.26923099 5:0.2 # 122;1283
0.8116116148396797 1:0.1875 2:1 3:0.37725601 4:0.384615 5:0.2 # 150;1039
-0.52834432232895545 1:0.25 2:1 3:0.420578 4:0.153846 5:0 # 144;1032
0.8116116148396797 1:0.1875 2:0 3:0.68953103 4:0.23076899 5:0 # 122;1001
-0.20315837442756646 1:0.25 2:0 3:0.36281601 4:0 5:0 # 254;1283
0.8116116148396797 1:0.375 2:1 3:0.48014399 4:0.42307699 5:0.30000001 # 109;1293
-0.8116116148396797 1:0.5 2:1 3:0.46570399 4:0.30769199 5:0.2 # 239;1049
0.8116116148396797 1:0.1875 2:0 3:0.45848399 4:0.19230799 5:0.1 # 139;1318
-0.8116116148396797 1:0.125 2:0 3:0.460289 4:0.30769199 5:0.1 # 204;1001
0.8116116148396797 1:0.5625 2:1 3:0.46570399 4:0.23076899 5:0 # 239;1057
-0.3728506141853094 1:0.625 2:1 3:0.66065001 4:0.26923099 5:0.2 # 236;1025
0.8116116148396797 1:0.1875 2:0.111111 3:0.55595702 4:0.53846198 5:0.1 # 173;1277
-0.8116116148396797 1:0.25 2:0 3:0.55595702 4:0.57692301 5:0.1 # 291;1001
0.8116116148396797 1:0.6875 2:0.88888901 3:0.70036101 4:0.30769199 5:0.30000001 # 183;1084
-0.8116116148396797 1:0.6875 2:0.88888901 3:0.68953103 4:0.26923099 5:0.1 # 122;1042
0.8116116148396797 1:0.25 2:0.111111 3:0.55776203 4:0.615385 5:0.1 # 264;1067
-0.8116116148396797 1:0.1875 2:0.111111 3:0.55595702 4:0.57692301 5:0.2 # 173;1276
0.8116116148396797 1:0.5625 2:0.88888901 3:0.82671499 4:0.076923102 5:0 # 200;1084
-0.31068481876454723 1:0.3125 2:0.33333299 3:0.75451303 4:0.69230801 5:0.30000001 # 196;1317
0.8116116148396797 1:0.25 2:0 3:0.56859201 4:0.53846198 5:0.40000001 # 194;1283
-0.8116116148396797 1:0.25 2:0 3:0.606498 4:0.53846198 5:0.30000001 # 145;1318
0.8116116148396797 1:0.375 2:1 3:0.803249 4:0.23076899 5:0 # 175;1013
-0.8116116148396797 1:0.125 2:1 3:0.46570399 4:0.30769199 5:0.2 # 239;1033
0.8116116148396797 1:0.3125 2:0 3:0.55776203 4:0.57692301 5:0.40000001 # 264;1283
-0.8116116148396797 1:0.5 2:0.111111 3:0.56859201 4:0.57692301 5:0.5 # 194;1233
0.8116116148396797 1:0.5 2:1 3:0.68953103 4:0.23076899 5:0.1 # 122;1293
-0.8116116148396797 1:0.3125 2:1 3:0.49639001 4:0.23076899 5:0 # 282;1051
0.8116116148396797 1:0.5 2:0.111111 3:0.55595702 4:0.53846198 5:0.5 # 173;1067
-0.8116116148396797 1:0.375 2:0.111111 3:0.55595702 4:0.57692301 5:0.60000002 # 173;1035
0.8116116148396797 1:0.3125 2:1 3:0.447653 4:0.115385 5:0 # 270;1057
-0.8116116148396797 1:0.4375 2:1 3:0.393502 4:0 5:0 # 216;1050
0.8116116148396797 1:0.3125 2:0 3:0.71660602 4:0.73076898 5:0.40000001 # 177;1318
-0.54753486706683607 1:0.0625 2:1 3:0.395307 4:0.23076899 5:0.40000001 # 260;1292
0.8116116148396797 1:0.4375 2:1 3:0.449458 4:0.115385 5:0 # 120;1039
-0.8116116148396797 1:0.4375 2:0.88888901 3:0.395307 4:0.23076899 5:0.1 # 260;1042
0.8116116148396797 1:0.25 2:0.111111 3:0.76534301 4:0.615385 5:0.30000001 # 151;1067
-0.8116116148396797 1:0.25 2:0.111111 3:0.74187702 4:0.57692301 5:0.2 # 115;1276
0.8116116148396797 1:0.3125 2:1 3:0.29963899 4:0.19230799 5:0.1 # 301;1293
-0.13033784061968201 1:0.125 2:1 3:0.46570399 4:0.30769199 5:0.2 # 239;1034
0.8116116148396797 1:0.1875 2:0.111111 3:0.74187702 4:0.53846198 5:0 # 115;1067
-0.8116116148396797 1:0.25 2:0.111111 3:0.74187702 4:0.57692301 5:0.1 # 115;1035
0.8116116148396797 1:0.3125 2:0.88888901 3:0.18411601 4:0.115385 5:0 # 241;1081
-0.80281835868416973 1:0.4375 2:1 3:0.393502 4:0 5:0 # 216;1052
0.8116116148396797 1:0.3125 2:0.33333299 3:0.76534301 4:0.615385 5:0.30000001 # 151;1319
-0.8116116148396797 1:0.375 2:0.111111 3:0.606498 4:0.53846198 5:0.30000001 # 145;1281
0.8116116148396797 1:0.3125 2:0.88888901 3:0.34837499 4:0.038461499 5:0 # 231;1081
-0.8116116148396797 1:0.3125 2:0.88888901 3:0.37184101 4:0.30769199 5:0 # 197;1040
0.8116116148396797 1:0.25 2:0 3:0.48014399 4:0.42307699 5:0.30000001 # 109;1318
-0.8116116148396797 1:0.375 2:0 3:0.50721997 4:0.384615 5:0.2 # 123;1001
0.8116116148396797 1:0.375 2:1 3:0.53610098 4:0.115385 5:0.1 # 297;1013
-0.0049036517946094982 1:0.25 2:0.88888901 3:0.37184101 4:0.30769199 5:0 # 197;1046
0.8116116148396797 1:0.5 2:0 3:0.55595702 4:0.5 5:0.2 # 173;1283
-0.8116116148396797 1:0.5 2:0.111111 3:0.55595702 4:0.57692301 5:0.1 # 291;1035
0.8116116148396797 1:0.1875 2:1 3:0.38989201 4:0.30769199 5:0.1 # 134;1013
-0.8116116148396797 1:0.1875 2:1 3:0.31407899 4:0.115385 5:0 # 289;1004
0.8116116148396797 1:0.4375 2:0.111111 3:0.55595702 4:0.53846198 5:0 # 291;1067
-0.8116116148396797 1:0.1875 2:0.111111 3:0.74187702 4:0.57692301 5:0.2 # 115;1277
0.8116116148396797 1:0.25 2:1 3:0.49639001 4:0.19230799 5:0 # 282;1039
-0.72728875371068469 1:0.375 2:1 3:0.59747303 4:0.19230799 5:0 # 281;1004
0.8116116148396797 1:0.25 2:0 3:0.70036101 4:0.30769199 5:0.2 # 183;1001
-0.8116116148396797 1:0.25 2:0 3:0.45848399 4:0.23076899 5:0.2 # 139;1283
0.8116116148396797 1:0.3125 2:1 3:0.45848399 4:0.19230799 5:0 # 139;1039
-0.8116116148396797 1:0.3125 2:1 3:0.49639001 4:0.23076899 5:0 # 282;1054
0.8116116148396797 1:0.1875 2:0 3:0.38989201 4:0.30769199 5:0.30000001 # 134;1318
-0.8116116148396797 1:0.25 2:0 3:0.38989201 4:0.346154 5:0.30000001 # 134;1001
0.8116116148396797 1:0.375 2:1 3:0.67509001 4:0.19230799 5:0.2 # 272;1057
-0.8116116148396797 1:0.3125 2:0 3:0.51263499 4:0.038461499 5:0 # 180;1001
0.8116116148396797 1:0.1875 2:0.111111 3:0.36462101 4:0.384615 5:0.40000001 # 228;1234
-0.8116116148396797 1:0.25 2:0.88888901 3:0.18411601 4:0.153846 5:0.1 # 241;1079
0.8116116148396797 1:0.5 2:1 3:0.74187702 4:0.5 5:0 # 115;1039
-0.8116116148396797 1:0.3125 2:1 3:0.52166098 4:0.5 5:0 # 148;1033
0.8116116148396797 1:0.1875 2:0 3:0.49639001 4:0.19230799 5:0.2 # 282;1001
-0.8116116148396797 1:0.25 2:0 3:0.59747303 4:0.19230799 5:0.1 # 281;1001
0.8116116148396797 1:0.3125 2:1 3:0.36462101 4:0.346154 5:0 # 228;1039
-0.8116116148396797 1:0.3125 2:0.88888901 3:0.37184101 4:0.30769199 5:0 # 197;1041
0.8116116148396797 1:0.3125 2:0 3:0.84837502 4:0.30769199 5:0.1 # 280;1283
-0.8116116148396797 1:0.375 2:0.111111 3:0.84837502 4:0.346154 5:0.2 # 280;1278
0.8116116148396797 1:0.1875 2:1 3:0.460289 4:0.26923099 5:0.1 # 204;1013
-0.74318681487899507 1:0.1875 2:1 3:0.45848399 4:0.23076899 5:0.2 # 139;1284
0.8116116148396797 1:0.3125 2:0 3:0.55595702 4:0.53846198 5:0.30000001 # 291;1318
-0.8116116148396797 1:0.375 2:0.111111 3:0.56859201 4:0.57692301 5:0.30000001 # 194;1035
0.8116116148396797 1:0.3125 2:1 3:0.49639001 4:0.19230799 5:0.1 # 282;1293
-0.8116116148396797 1:0.3125 2:1 3:0.420578 4:0.153846 5:0 # 144;1025
0.8116116148396797 1:0.25 2:0.111111 3:0.55595702 4:0.53846198 5:0.30000001 # 291;1281
-0.8116116148396797 1:0.3125 2:0.111111 3:0.460289 4:0.30769199 5:0.40000001 # 204;1233
0.8116116148396797 1:0.3125 2:1 3:0.45848399 4:0.19230799 5:0.1 # 139;1293
-0.8116116148396797 1:0.4375 2:1 3:0.46570399 4:0.30769199 5:0.2 # 239;1050
0.8116116148396797 1:0.25 2:0 3:0.50721997 4:0.346154 5:0.30000001 # 123;1283
-0.8116116148396797 1:0.375 2:0 3:0.59747303 4:0.19230799 5:0.30000001 # 281;1318
0.8116116148396797 1:0.5 2:1 3:0.55776203 4:0.57692301 5:0.2 # 264;1057
-0.8116116148396797 1:0.375 2:1 3:0.55595702 4:0.57692301 5:0.30000001 # 173;1051
0.8116116148396797 1:0.375 2:0.111111 3:0.66606498 4:0.19230799 5:0.40000001 # 152;1281
-0.8116116148396797 1:0.3125 2:0 3:0.66065001 4:0.26923099 5:0.2 # 236;1001
0.8116116148396797 1:0.1875 2:0.88888901 3:0.56859201 4:0.53846198 5:0.1 # 194;1084
-0.8116116148396797 1:0.3125 2:1 3:0.52166098 4:0.5 5:0 # 148;1036
0.8116116148396797 1:0.375 2:0 3:0.84837502 4:0.30769199 5:0.2 # 280;1001
-0.091104258745708711 1:0.3125 2:0.444444 3:0.74187702 4:0.57692301 5:0.1 # 115;1201
0.8116116148396797 1:0.3125 2:1 3:0.48014399 4:0.42307699 5:0.1 # 109;1057
-0.41070376970218447 1:0.25 2:1 3:0.50721997 4:0.384615 5:0 # 123;1048
0.8116116148396797 1:0.3125 2:0.111111 3:0.84837502 4:0.30769199 5:0.2 # 280;1067
-0.8116116148396797 1:0.3125 2:0.111111 3:0.84837502 4:0.346154 5:0.2 # 280;1234
0.8116116148396797 1:0.25 2:0.88888901 3:0.25812301 4:0.153846 5:0 # 143;1081
-0.8116116148396797 1:0.25 2:0.88888901 3:0.18411601 4:0.153846 5:0.1 # 241;1076
0.8116116148396797 1:0.3125 2:0.33333299 3:0.75451303 4:0.65384603 5:0.2 # 196;1319
-0.8116116148396797 1:0.5625 2:0.33333299 3:0.74187702 4:0.57692301 5:0.1 # 115;1316
0.8116116148396797 1:0.25 2:1 3:0.37184101 4:0.26923099 5:0.2 # 197;1039
-0.74941558667123132 1:0.125 2:1 3:0.37184101 4:0.30769199 5:0.30000001 # 197;1032
0.8116116148396797 1:0.5 2:0.111111 3:0.84837502 4:0.30769199 5:0.1 # 280;1281
-0.8116116148396797 1:0.4375 2:0.111111 3:0.70036101 4:0.346154 5:0.1 # 183;1281
0.8116116148396797 1:0.25 2:1 3:0.38989201 4:0.30769199 5:0.30000001 # 134;1293
-0.036463216325534731 1:0.1875 2:0.88888901 3:0.19494601 4:0 5:0 # 207;1002
0.8116116148396797 1:0.5 2:0 3:0.43140799 4:0.076923102 5:0 # 265;1001
-0.8116116148396797 1:0.375 2:0.111111 3:0.402527 4:0 5:0 # 238;1278
0.8116116148396797 1:0.25 2:0.88888901 3:0.56859201 4:0.53846198 5:0.40000001 # 194;1081
-0.19782704558547071 1:0.0625 2:1 3:0.66606498 4:0.23076899 5:0.1 # 152;1012
0.8116116148396797 1:0.1875 2:0.111111 3:0.447653 4:0.115385 5:0.1 # 270;1277
-0.8116116148396797 1:0.25 2:0 3:0.53610098 4:0.153846 5:0 # 297;1001
0.8116116148396797 1:0.6875 2:1 3:0.52166098 4:0.384615 5:0.30000001 # 148;1293
-0.8116116148396797 1:0.625 2:1 3:0.66065001 4:0.26923099 5:0.2 # 236;1036
0.8116116148396797 1:0.25 2:0.111111 3:0.59747303 4:0.153846 5:0 # 281;1277
-0.8116116148396797 1:0.3125 2:0.111111 3:0.395307 4:0.23076899 5:0.1 # 260;1035
0.8116116148396797 1:0.4375 2:1 3:0.75451303 4:0.57692301 5:0.2 # 196;1013
-0.8116116148396797 1:0.375 2:1 3:0.74187702 4:0.57692301 5:0.2 # 115;1025
0.8116116148396797 1:0.25 2:0 3:0.29963899 4:0.19230799 5:0.1 # 301;1318
-0.8116116148396797 1:0.125 2:0 3:0.29963899 4:0.23076899 5:0.2 # 301;1283
0.8116116148396797 1:0.375 2:1 3:0.68953103 4:0.23076899 5:0.2 # 122;1039
-0.52463383886250803 1:0.1875 2:1 3:0.74187702 4:0 5:0 # 219;1050
0.8116116148396797 1:0.1875 2:0 3:0.37184101 4:0.26923099 5:0.1 # 197;1001
-0.8116116148396797 1:0.1875 2:0 3:0.447653 4:0.153846 5:0 # 270;1001
0.8116116148396797 1:0.4375 2:0.88888901 3:0.88808697 4:0.69230801 5:0.1 # 167;1081
-0.50768890785082876 1:0.1875 2:0.444444 3:0.12635399 4:0.076923102 5:0 # 191;1072
0.8116116148396797 1:0.25 2:0.111111 3:0.185921 4:0.115385 5:0.1 # 107;1234
-0.8116116148396797 1:0.375 2:0.111111 3:0.29963899 4:0.23076899 5:0.2 # 301;1035
0.8116116148396797 1:0.375 2:0.88888901 3:0.75451303 4:0.65384603 5:0.2 # 196;1081
-0.8116116148396797 1:0.375 2:1 3:0.74187702 4:0.57692301 5:0.2 # 115;1033
0.8116116148396797 1:0.1875 2:0 3:0.46570399 4:0.26923099 5:0.2 # 239;1318
-0.8116116148396797 1:0.125 2:0 3:0.46570399 4:0.30769199 5:0.1 # 239;1001
0.8116116148396797 1:0.25 2:1 3:0.50721997 4:0.346154 5:0.30000001 # 123;1293
-0.155164640078024 1:0.25 2:1 3:0.86101103 4:0.153846 5:0 # 178;1037
0.8116116148396797 1:0.25 2:0 3:0.36462101 4:0.346154 5:0.1 # 228;1001
-0.8116116148396797 1:0.25 2:0.111111 3:0.34296 4:0.346154 5:0.2 # 128;1278
0.8116116148396797 1:0.375 2:1 3:0.460289 4:0.26923099 5:0.30000001 # 204;1293
-0.8116116148396797 1:0.5 2:1 3:0.46570399 4:0.30769199 5:0.2 # 239;1051
0.8116116148396797 1:0.25 2:0 3:0.37725601 4:0.384615 5:0.2 # 150;1318
-0.8116116148396797 1:0.0625 2:1 3:0.37725601 4:0.42307699 5:0.30000001 # 150;1284
0.8116116148396797 1:0.5625 2:1 3:0.606498 4:0.46153799 5:0.2 # 145;1013
-0.8116116148396797 1:0.375 2:1 3:0.74187702 4:0.57692301 5:0.2 # 115;1034
0.8116116148396797 1:0.1875 2:0.111111 3:0.34296 4:0.30769199 5:0.30000001 # 128;1067
-0.8116116148396797 1:0.3125 2:0.111111 3:0.37184101 4:0.30769199 5:0.30000001 # 197;1276
0.8116116148396797 1:0.25 2:1 3:0.66065001 4:0.23076899 5:0.1 # 236;1293
-0.16020668959215278 1:0.5625 2:1 3:0.74187702 4:0.57692301 5:0.5 # 115;1005
0.8116116148396797 1:0.3125 2:0.111111 3:0.52166098 4:0.42307699 5:0.40000001 # 148;1234
-0.8116116148396797 1:0.4375 2:0.111111 3:0.55595702 4:0.57692301 5:0.40000001 # 173;1233
0.8116116148396797 1:0.1875 2:1 3:0.460289 4:0.26923099 5:0.1 # 204;1057
-0.8116116148396797 1:0.125 2:1 3:0.447653 4:0.153846 5:0.2 # 270;1033
0.8116116148396797 1:0.5625 2:0.111111 3:0.55776203 4:0.53846198 5:0.30000001 # 264;1281
-0.8116116148396797 1:0.5 2:0.111111 3:0.50721997 4:0.384615 5:0.2 # 123;1035
0.8116116148396797 1:0.25 2:1 3:0.46570399 4:0.26923099 5:0.2 # 239;1293
-0.17960857558864518 1:0.125 2:1 3:0.460289 4:0.30769199 5:0.2 # 204;1005
0.8116116148396797 1:0.3125 2:0 3:0.449458 4:0.153846 5:0.1 # 120;1001
-0.29648092498479484 1:0.3125 2:1 3:0.76534301 4:0.65384603 5:0.2 # 151;1034
0.8116116148396797 1:0.375 2:1 3:0.52166098 4:0.46153799 5:0.2 # 148;1013
-0.8116116148396797 1:0.375 2:1 3:0.55595702 4:0.57692301 5:0.30000001 # 173;1052
0.8116116148396797 1:0.1875 2:0.111111 3:0.420578 4:0.115385 5:0.2 # 144;1234
-0.8116116148396797 1:0.0625 2:1 3:0.67509001 4:0.23076899 5:0.30000001 # 272;1291
0.8116116148396797 1:0.4375 2:0.88888901 3:0.55776203 4:0.615385 5:0.30000001 # 264;1084
-0.44980047549194091 1:0.375 2:0 3:0.58483797 4:0 5:0 # 110;1283
0.8116116148396797 1:0.25 2:0 3:0.37184101 4:0.26923099 5:0.2 # 197;1283
-0.8116116148396797 1:0.4375 2:0.111111 3:0.50721997 4:0.384615 5:0.2 # 123;1067
0.8116116148396797 1:0.3125 2:1 3:0.46570399 4:0.26923099 5:0.1 # 239;1039
-0.8116116148396797 1:0.3125 2:1 3:0.245487 4:0.076923102 5:0.1 # 193;1050
-0.8116116148396797 1:0.3125 2:0.111111 3:0.37725601 4:0.076923102 5:0 # 296;1277
0.8116116148396797 1:0.6875 2:0 3:0.37725601 4:0.038461499 5:0 # 296;1001
-0.81161091965440835 1:0.625 2:1 3:0.66065001 4:0.26923099 5:0.2 # 236;1037
0.8116116148396797 1:0.125 2:0.444444 3:0.55776203 4:0.615385 5:0.1 # 264;1222
-0.8116116148396797 1:0.25 2:0.111111 3:0.52166098 4:0.5 5:0 # 148;1276
0.8116116148396797 1:0.5625 2:0.88888901 3:0.66606498 4:0.19230799 5:0 # 152;1084
-0.8116116148396797 1:0.4375 2:1 3:0.84837502 4:0.346154 5:0.1 # 280;1005
0.8116116148396797 1:0.25 2:0 3:0.34296 4:0.30769199 5:0.1 # 128;1283
-0.8116116148396797 1:0.25 2:0.111111 3:0.31407899 4:0.115385 5:0.1 # 289;1035
0.8116116148396797 1:0.5 2:0.88888901 3:0.75451303 4:0.615385 5:0.30000001 # 196;1084
-0.49540705242469163 1:0.75 2:1 3:0.86101103 4:0.153846 5:0.1 # 178;1289
0.8116116148396797 1:0.125 2:0.33333299 3:0.13718399 4:0.115385 5:0.1 # 147;1222
-0.34993870247894937 1:0.375 2:1 3:0.88808697 4:0.80769199 5:0.40000001 # 167;1291
0.8116116148396797 1:0.5 2:0.88888901 3:0.76534301 4:0.57692301 5:0.2 # 151;1084
-0.8116116148396797 1:0.6875 2:0.88888901 3:0.606498 4:0.53846198 5:0.40000001 # 145;1041
0.8116116148396797 1:0.125 2:0.444444 3:0.18411601 4:0.115385 5:0 # 241;1222
-0.57764933890404546 1:0.3125 2:0.33333299 3:0.75451303 4:0.69230801 5:0.30000001 # 196;1315
0.8116116148396797 1:0.8125 2:0.88888901 3:0.606498 4:0.46153799 5:0.2 # 145;1084
-0.8116116148396797 1:0.6875 2:0.88888901 3:0.68953103 4:0.26923099 5:0.1 # 122;1044
0.8116116148396797 1:0.1875 2:0.111111 3:0.460289 4:0.26923099 5:0 # 204;1277
-0.8116116148396797 1:0.5 2:0.111111 3:0.46570399 4:0.30769199 5:0.1 # 239;1035
0.8116116148396797 1:0.375 2:0.88888901 3:0.67509001 4:0.19230799 5:0.2 # 272;1084
0.8116116148396797 1:0.6875 2:0.111111 3:0.75451303 4:0.615385 5:0.1 # 196;1067
0.8116116148396797 1:0.375 2:0 3:0.395307 4:0.153846 5:0.2 # 260;1283
-0.8116116148396797 1:0.3125 2:0.111111 3:0.46570399 4:0.30769199 5:0.2 # 239;1276
0.8116116148396797 1:0.375 2:1 3:0.50721997 4:0.30769199 5:0.2 # 123;1039
-0.8116116148396797 1:0.5 2:1 3:0.46570399 4:0.30769199 5:0.2 # 239;1056
0.8116116148396797 1:0.375 2:0 3:0.55595702 4:0.53846198 5:0.30000001 # 291;1283
-0.8116116148396797 1:0.3125 2:0 3:0.66065001 4:0.26923099 5:0.2 # 236;1318
0.8116116148396797 1:0.375 2:0.88888901 3:0.66065001 4:0.19230799 5:0 # 236;1081
-0.8089532833050308 1:0.375 2:1 3:0.67509001 4:0.23076899 5:0 # 272;1025
0.8116116148396797 1:0.25 2:0.111111 3:0.67509001 4:0.19230799 5:0.2 # 272;1281
-0.8116116148396797 1:0.3125 2:0.111111 3:0.46570399 4:0.30769199 5:0.30000001 # 239;1281
0.8116116148396797 1:0.4375 2:1 3:0.55595702 4:0.46153799 5:0.1 # 291;1039
-0.57492350302448625 1:0.3125 2:1 3:0.56859201 4:0.57692301 5:0.2 # 194;1009
0.8116116148396797 1:0.3125 2:0 3:0.38989201 4:0.30769199 5:0.30000001 # 134;1283
-0.8116116148396797 1:0.375 2:1 3:0.88808697 4:0.80769199 5:0.40000001 # 167;1290
0.8116116148396797 1:0.125 2:0.88888901 3:0.36462101 4:0.384615 5:0.40000001 # 228;1293
-0.8116116148396797 1:0.4375 2:1 3:0.84837502 4:0.346154 5:0.1 # 280;1013
0.8116116148396797 1:0.375 2:0.111111 3:0.67509001 4:0.153846 5:0.1 # 272;1234
-0.8116116148396797 1:0.5625 2:0 3:0.82671499 4:0.153846 5:0.1 # 200;1283
0.8116116148396797 1:0.5 2:1 3:0.55595702 4:0.5 5:0.1 # 173;1057
-0.8116116148396797 1:0.3125 2:0.111111 3:0.68953103 4:0.26923099 5:0.2 # 122;1233
0.8116116148396797 1:0.3125 2:0.111111 3:0.59747303 4:0.153846 5:0.2 # 281;1281
-0.8116116148396797 1:0.1875 2:0.88888901 3:0.19494601 4:0 5:0 # 207;1077
0.8116116148396797 1:0.5 2:0.88888901 3:0.84837502 4:0.30769199 5:0 # 280;1084
-0.8116116148396797 1:0.6875 2:0.88888901 3:0.68953103 4:0.26923099 5:0.1 # 122;1045
0.8116116148396797 1:0.25 2:0.111111 3:0.38989201 4:0.30769199 5:0.30000001 # 134;1234
-0.001297500518687586 1:0.0625 2:0.77777803 3:0.0595668 4:0.076923102 5:0 # 274;1003
0.8116116148396797 1:0.75 2:0.88888901 3:0.55595702 4:0.42307699 5:0.2 # 291;1084
-0.8116116148396797 1:0.625 2:0.88888901 3:0.606498 4:0.53846198 5:0.40000001 # 145;1047
0.8116116148396797 1:0.25 2:0.111111 3:0.50721997 4:0.346154 5:0.30000001 # 123;1281
-0.8116116148396797 1:0.25 2:0.111111 3:0.460289 4:0.30769199 5:0.1 # 204;1035
0.8116116148396797 1:0.25 2:0.88888901 3:0.55595702 4:0.53846198 5:0.2 # 173;1084
-0.8116116148396797 1:0.25 2:0.111111 3:0.70036101 4:0.346154 5:0.1 # 183;1233
0.8116116148396797 1:0.25 2:0.111111 3:0.395307 4:0.19230799 5:0 # 260;1067
-0.8116116148396797 1:0.375 2:0.111111 3:0.420578 4:0.153846 5:0 # 144;1277
0.8116116148396797 1:0.3125 2:0.88888901 3:0.606498 4:0.5 5:0.2 # 145;1081
-0.8116116148396797 1:0.375 2:1 3:0.74187702 4:0.57692301 5:0.2 # 115;1038
0.8116116148396797 1:0.375 2:0.111111 3:0.45848399 4:0.153846 5:0 # 139;1067
-0.8116116148396797 1:0.3125 2:0.111111 3:0.34837499 4:0.076923102 5:0 # 231;1278
0.8116116148396797 1:0.5625 2:0.88888901 3:0.74187702 4:0.46153799 5:0.2 # 115;1084
-0.35591055187936105 1:0.625 2:0.88888901 3:0.68953103 4:0.26923099 5:0.1 # 122;1040
0.8116116148396797 1:0.1875 2:0.33333299 3:0.13718399 4:0.115385 5:0.1 # 147;1319
-0.61296840413534337 1:0.625 2:0.444444 3:0.84837502 4:0.346154 5:0.30000001 # 280;1072
0.8116116148396797 1:0.6875 2:0.444444 3:0.86101103 4:0.115385 5:0.1 # 178;1222
-0.35410856426509341 1:0.0625 2:1 3:0.604693 4:0.038461499 5:0 # 103;1007
0.8116116148396797 1:0.125 2:0.66666698 3:0.135379 4:0.115385 5:0 # 271;1084
-0.8116116148396797 1:0.0625 2:0 3:0.0595668 4:0.076923102 5:0 # 274;1001
0.8116116148396797 1:0.5625 2:0 3:0.74187702 4:0.42307699 5:0.30000001 # 115;1318
-0.8116116148396797 1:0.5 2:0.111111 3:0.66065001 4:0.26923099 5:0.2 # 236;1233
0.8116116148396797 1:0.25 2:0.88888901 3:0.34296 4:0.30769199 5:0.1 # 128;1084
-0.8116116148396797 1:0.3125 2:0.88888901 3:0.38989201 4:0.346154 5:0 # 134;1002
0.8116116148396797 1:0.25 2:0.111111 3:0.49639001 4:0.19230799 5:0.1 # 282;1281
-0.8116116148396797 1:0.25 2:0 3:0.68953103 4:0.26923099 5:0.2 # 122;1318
0.8116116148396797 1:0.3125 2:0.88888901 3:0.66065001 4:0.23076899 5:0 # 236;1084
-0.8116116148396797 1:0.3125 2:0.88888901 3:0.38989201 4:0.346154 5:0 # 134;1003
0.8116116148396797 1:0.375 2:0 3:0.46570399 4:0.26923099 5:0.2 # 239;1283
-0.8116116148396797 1:0.5625 2:0.111111 3:0.46570399 4:0.30769199 5:0.1 # 239;1067
0.8116116148396797 1:0.3125 2:0.88888901 3:0.55595702 4:0.53846198 5:0.1 # 173;1081
-0.8116116148396797 1:0.375 2:1 3:0.74187702 4:0.57692301 5:0.2 # 115;1036
0.8116116148396797 1:0.5625 2:0.111111 3:0.460289 4:0.19230799 5:0.1 # 204;1234
-0.8116116148396797 1:0.4375 2:0.111111 3:0.53610098 4:0.153846 5:0.2 # 297;1233
0.8116116148396797 1:0.3125 2:0.88888901 3:0.52166098 4:0.42307699 5:0.1 # 148;1084
-0.8116116148396797 1:0.3125 2:0.88888901 3:0.38989201 4:0.346154 5:0 # 134;1078
0.8116116148396797 1:0.375 2:0.111111 3:0.68953103 4:0.19230799 5:0.1 # 122;1277
-0.8116116148396797 1:0.375 2:0.111111 3:0.70036101 4:0.346154 5:0.1 # 183;1278
0.8116116148396797 1:0.375 2:0.88888901 3:0.29963899 4:0.19230799 5:0.1 # 301;1084
-0.58795357544691296 1:0.1875 2:0.88888901 3:0.19494601 4:0 5:0 # 207;1079
0.8116116148396797 1:0.375 2:0 3:0.71660602 4:0.69230801 5:0.30000001 # 177;1283
-0.34015548030843412 1:0.3125 2:1 3:0.245487 4:0.076923102 5:0.1 # 193;1049
0.8116116148396797 1:0.375 2:0.88888901 3:0.395307 4:0.19230799 5:0 # 260;1084
-0.8116116148396797 1:0.625 2:0.88888901 3:0.68953103 4:0.26923099 5:0.1 # 122;1046
0.8116116148396797 1:0.3125 2:0.111111 3:0.55595702 4:0.53846198 5:0.30000001 # 173;1281
-0.8116116148396797 1:0.3125 2:0.111111 3:0.48014399 4:0.46153799 5:0.2 # 109;1276
0.8116116148396797 1:0.3125 2:0.88888901 3:0.45848399 4:0.19230799 5:0 # 139;1084
-0.8116116148396797 1:0.3125 2:0.88888901 3:0.37184101 4:0.30769199 5:0 # 197;1045
0.8116116148396797 1:0.3125 2:0.111111 3:0.48014399 4:0.42307699 5:0.30000001 # 109;1067
-0.8116116148396797 1:0.5625 2:0.111111 3:0.50721997 4:0.384615 5:0.40000001 # 123;1233
0.8116116148396797 1:0.3125 2:0.88888901 3:0.70036101 4:0.30769199 5:0 # 183;1081
-0.8116116148396797 1:0.125 2:0.111111 3:0.185921 4:0.153846 5:0 # 107;1277
0.8116116148396797 1:0.5625 2:0.111111 3:0.50721997 4:0.346154 5:0.30000001 # 123;1234
-0.8116116148396797 1:0.375 2:0.111111 3:0.37725601 4:0.42307699 5:0.30000001 # 150;1276
0.8116116148396797 1:0.3125 2:0.88888901 3:0.48014399 4:0.42307699 5:0.1 # 109;1084
-0.25847595576190441 1:0.3125 2:0.444444 3:0.74187702 4:0.57692301 5:0.1 # 115;1222
0.8116116148396797 1:0.4375 2:0.111111 3:0.395307 4:0.19230799 5:0.30000001 # 260;1281
-0.8116116148396797 1:0.375 2:0.111111 3:0.37725601 4:0.42307699 5:0.30000001 # 150;1277
0.8116116148396797 1:0.5 2:0.88888901 3:0.37725601 4:0.346154 5:0.1 # 150;1081
-0.8116116148396797 1:0.4375 2:0.88888901 3:0.395307 4:0.23076899 5:0.1 # 260;1044
0.8116116148396797 1:0.375 2:0.111111 3:0.55595702 4:0.53846198 5:0.30000001 # 173;1234
-0.8116116148396797 1:0.4375 2:0.33333299 3:0.74187702 4:0.57692301 5:0.1 # 115;1319
0.8116116148396797 1:0.1875 2:0.77777803 3:0.38989201 4:0.30769199 5:0.1 # 134;1084
-0.8116116148396797 1:0.625 2:0.88888901 3:0.68953103 4:0.26923099 5:0.1 # 122;1043
0.8116116148396797 1:0.5 2:0.33333299 3:0.84837502 4:0.30769199 5:0.2 # 280;1319
-0.8116116148396797 1:0.125 2:0 3:0.185921 4:0.153846 5:0.2 # 107;1283
0.8116116148396797 1:0.125 2:0.444444 3:0.227437 4:0.19230799 5:0.1 # 225;1222
-0.8116116148396797 1:0.3125 2:0.111111 3:0.66065001 4:0.26923099 5:0.2 # 236;1278
0.8116116148396797 1:0.3125 2:0.444444 3:0.76534301 4:0.57692301 5:0.2 # 151;1222
-0.38401284084968418 1:0.25 2:0.111111 3:0.48014399 4:0.46153799 5:0.40000001 # 109;1035
0.8116116148396797 1:0.25 2:0.444444 3:0.25812301 4:0.153846 5:0 # 143;1222
-0.21564743021954524 1:0.3125 2:0.33333299 3:0.232852 4:0 5:0 # 165;1315
0.8116116148396797 1:0.5 2:0.444444 3:0.55595702 4:0.5 5:0.40000001 # 173;1222
-0.8116116148396797 1:0.3125 2:1 3:0.49639001 4:0.23076899 5:0 # 282;1056
0.8116116148396797 1:0.3125 2:0.444444 3:0.420578 4:0.115385 5:0 # 144;1222
-0.8116116148396797 1:0.25 2:1 3:0.36462101 4:0.42307699 5:0.1 # 228;1049
0.8116116148396797 1:0.4375 2:0.111111 3:0.71660602 4:0.73076898 5:0.2 # 177;1277
-0.8116116148396797 1:0.25 2:0.111111 3:0.606498 4:0.53846198 5:0.30000001 # 145;1233
0.8116116148396797 1:0.25 2:0.444444 3:0.449458 4:0.153846 5:0.1 # 120;1222
-0.8116116148396797 1:0.25 2:0.88888901 3:0.37184101 4:0.30769199 5:0 # 197;1042
0.8116116148396797 1:0.1875 2:0.33333299 3:0.52166098 4:0.46153799 5:0.30000001 # 148;1319
-0.8116116148396797 1:0.375 2:0.111111 3:0.66065001 4:0.26923099 5:0.2 # 236;1234
0.8116116148396797 1:0.25 2:0.444444 3:0.46570399 4:0.26923099 5:0 # 239;1222
-0.8116116148396797 1:0.25 2:0.88888901 3:0.18411601 4:0.153846 5:0.1 # 241;1078
0.8116116148396797 1:0.875 2:0.111111 3:0.75451303 4:0.53846198 5:0.30000001 # 196;1281
-0.8116116148396797 1:0.5 2:0.33333299 3:0.606498 4:0.53846198 5:0.40000001 # 145;1317
0.8116116148396797 1:0.1875 2:0.33333299 3:0.37184101 4:0.26923099 5:0.1 # 197;1319
-0.8116116148396797 1:0.25 2:0.111111 3:0.449458 4:0.19230799 5:0 # 120;1281
0.8116116148396797 1:0.5 2:0.33333299 3:0.55595702 4:0.5 5:0.40000001 # 173;1319
-0.8116116148396797 1:0.4375 2:0.33333299 3:0.606498 4:0.53846198 5:0.40000001 # 145;1315
0.8116116148396797 1:0.3125 2:0.111111 3:0.460289 4:0.26923099 5:0 # 204;1067
-0.8116116148396797 1:0.4375 2:0.111111 3:0.66606498 4:0.23076899 5:0 # 152;1035
0.8116116148396797 1:0.3125 2:0.111111 3:0.70036101 4:0.30769199 5:0.2 # 183;1067
-0.8116116148396797 1:0.25 2:0.111111 3:0.52166098 4:0.5 5:0 # 148;1277
0.8116116148396797 1:0.4375 2:0.33333299 3:0.59747303 4:0.153846 5:0 # 281;1319
-0.8116116148396797 1:0.625 2:0.444444 3:0.66606498 4:0.23076899 5:0 # 152;1072
0.8116116148396797 1:0.3125 2:0.111111 3:0.606498 4:0.46153799 5:0.1 # 145;1277
-0.8116116148396797 1:0.375 2:0.111111 3:0.50721997 4:0.384615 5:0.40000001 # 123;1276
0.8116116148396797 1:0.5 2:0.444444 3:0.50721997 4:0.30769199 5:0 # 123;1222
-0.8116116148396797 1:0.3125 2:0.111111 3:0.56859201 4:0.57692301 5:0.5 # 194;1281
0.8116116148396797 1:0.375 2:0.111111 3:0.55595702 4:0.53846198 5:0.30000001 # 291;1277
-0.8116116148396797 1:0.375 2:0.33333299 3:0.56859201 4:0.57692301 5:0.30000001 # 194;1315
0.8116116148396797 1:0.3125 2:0.33333299 3:0.66065001 4:0.23076899 5:0.1 # 236;1319
-0.8116116148396797 1:0.3125 2:0.111111 3:0.70036101 4:0.346154 5:0.1 # 183;1234
0.8116116148396797 1:0.375 2:0.444444 3:0.37725601 4:0.384615 5:0.30000001 # 150;1222
-0.8116116148396797 1:0.375 2:0.444444 3:0.37184101 4:0.30769199 5:0.2 # 197;1072
0.8116116148396797 1:0.4375 2:0.111111 3:0.68953103 4:0.23076899 5:0.1 # 122;1234
-0.8116116148396797 1:0.5 2:0.111111 3:0.51263499 4:0.038461499 5:0.1 # 180;1233
0.8116116148396797 1:0.25 2:0.33333299 3:0.36462101 4:0.384615 5:0.2 # 228;1319
-0.8116116148396797 1:0.375 2:0.444444 3:0.55595702 4:0.57692301 5:0.1 # 291;1072
0.8116116148396797 1:0.4375 2:0.33333299 3:0.49639001 4:0.153846 5:0.1 # 282;1319
-0.8116116148396797 1:0.375 2:0.111111 3:0.53610098 4:0.153846 5:0.2 # 297;1234
0.8116116148396797 1:0.4375 2:0.33333299 3:0.56859201 4:0.53846198 5:0.2 # 194;1319
-0.8116116148396797 1:0.375 2:0.444444 3:0.55595702 4:0.57692301 5:0.1 # 291;1074
0.8116116148396797 1:0.375 2:0.111111 3:0.37184101 4:0.23076899 5:0.1 # 197;1234
-0.8116116148396797 1:0.375 2:0.111111 3:0.395307 4:0.23076899 5:0.40000001 # 260;1278
0.8116116148396797 1:0.375 2:0.444444 3:0.52166098 4:0.384615 5:0.1 # 148;1222
-0.8116116148396797 1:0.375 2:0.444444 3:0.37184101 4:0.30769199 5:0.2 # 197;1201
0.8116116148396797 1:0.4375 2:0 3:0.606498 4:0.5 5:0.30000001 # 145;1001
-0.8116116148396797 1:0.375 2:0.111111 3:0.66065001 4:0.26923099 5:0.2 # 236;1276
0.8116116148396797 1:0.4375 2:0.444444 3:0.34296 4:0.23076899 5:0.1 # 128;1222
-0.8116116148396797 1:0.375 2:0.444444 3:0.55595702 4:0.57692301 5:0.1 # 291;1222
0.8116116148396797 1:0.375 2:0.111111 3:0.50721997 4:0.30769199 5:0.2 # 123;1277
-0.8116116148396797 1:0.25 2:0.111111 3:0.449458 4:0.19230799 5:0 # 120;1234
0.8116116148396797 1:0.5625 2:0.33333299 3:0.70036101 4:0.30769199 5:0.2 # 183;1319
-0.8116116148396797 1:0.5625 2:0.33333299 3:0.70036101 4:0.346154 5:0.30000001 # 183;1315
0.8116116148396797 1:0.375 2:0.111111 3:0.34296 4:0.30769199 5:0.1 # 128;1281
-0.8116116148396797 1:0.25 2:0.111111 3:0.45848399 4:0.23076899 5:0.1 # 139;1276
0.8116116148396797 1:0.375 2:0.111111 3:0.606498 4:0.46153799 5:0.1 # 145;1234
-0.8116116148396797 1:0.375 2:0.111111 3:0.66065001 4:0.26923099 5:0.2 # 236;1277
0.8116116148396797 1:0.375 2:0.111111 3:0.46570399 4:0.26923099 5:0.1 # 239;1277
-0.8116116148396797 1:0.1875 2:0.111111 3:0.38989201 4:0.346154 5:0 # 134;1276
0.8116116148396797 1:0.5 2:0.33333299 3:0.38989201 4:0.23076899 5:0 # 134;1319
-0.8116116148396797 1:0.625 2:0.444444 3:0.66606498 4:0.23076899 5:0 # 152;1073
0.8116116148396797 1:0.375 2:0 3:0.48014399 4:0.384615 5:0.2 # 109;1283
-0.8116116148396797 1:0.375 2:0.33333299 3:0.38989201 4:0.346154 5:0.30000001 # 134;1315
0.8116116148396797 1:0.625 2:0.33333299 3:0.606498 4:0.42307699 5:0.1 # 145;1319
-0.8116116148396797 1:0.625 2:0.444444 3:0.66606498 4:0.23076899 5:0 # 152;1201
0.8116116148396797 1:0.5 2:0.111111 3:0.29963899 4:0.19230799 5:0.1 # 301;1067
-0.8116116148396797 1:0.1875 2:0.111111 3:0.38989201 4:0.346154 5:0 # 134;1277
0.8116116148396797 1:0.4375 2:0.111111 3:0.56859201 4:0.53846198 5:0.2 # 194;1067
-0.8116116148396797 1:0.375 2:0.33333299 3:0.38989201 4:0.346154 5:0.30000001 # 134;1316
0.8116116148396797 1:0.4375 2:0.111111 3:0.48014399 4:0.384615 5:0 # 109;1277
-0.8116116148396797 1:0.5 2:0.111111 3:0.604693 4:0.038461499 5:0 # 103;1281
0.8116116148396797 1:0.4375 2:0.111111 3:0.55776203 4:0.53846198 5:0.2 # 264;1277
-0.8116116148396797 1:0.1875 2:0.111111 3:0.55776203 4:0.65384603 5:0.2 # 264;1035
0.8116116148396797 1:0.5 2:0.111111 3:0.37184101 4:0.23076899 5:0.1 # 197;1277
-0.8116116148396797 1:0.5 2:0.111111 3:0.57761699 4:0 5:0 # 117;1233
0.8116116148396797 1:0.5625 2:0.111111 3:0.75451303 4:0.615385 5:0.1 # 196;1277
-0.8116116148396797 1:0.375 2:0.33333299 3:0.56859201 4:0.57692301 5:0.30000001 # 194;1316
0.8116116148396797 1:0.4375 2:0 3:0.37725601 4:0.30769199 5:0.1 # 150;1001
-0.8116116148396797 1:0.25 2:0.111111 3:0.606498 4:0.53846198 5:0.30000001 # 145;1276
0.8116116148396797 1:0.5625 2:0.111111 3:0.56859201 4:0.5 5:0.30000001 # 194;1234
-0.8116116148396797 1:0.25 2:0 3:0.36462101 4:0.42307699 5:0.5 # 228;1318
-0.8116116148396797 1:0.4375 2:0.33333299 3:0.606498 4:0.53846198 5:0.40000001 # 145;1316
-0.8116116148396797 1:0.5 2:0.111111 3:0.57761699 4:0 5:0 # 117;1234
0.8116116148396797 1:0.4375 2:0 3:0.37725601 4:0.384615 5:0.2 # 150;1283
-0.8116116148396797 1:0.25 2:0.111111 3:0.606498 4:0.53846198 5:0.30000001 # 145;1278
0.8116116148396797 1:0.5 2:0 3:0.36462101 4:0.30769199 5:0.2 # 228;1283
-0.8116116148396797 1:0.4375 2:1 3:0.46570399 4:0.30769199 5:0.2 # 239;1053
-0.8116116148396797 1:0.25 2:0.111111 3:0.31407899 4:0.115385 5:0.1 # 289;1067
-0.8116116148396797 1:0.4375 2:1 3:0.84837502 4:0.346154 5:0.1 # 280;1007
-0.8116116148396797 1:0.5 2:0.111111 3:0.66606498 4:0.23076899 5:0.5 # 152;1233
0.8116116148396797 1:0.5625 2:0 3:0.48014399 4:0.346154 5:0.1 # 109;1001
-0.8116116148396797 1:0.3125 2:0.111111 3:0.53610098 4:0.153846 5:0 # 297;1276
-0.8116116148396797 1:0.375 2:0.111111 3:0.55776203 4:0.65384603 5:0.60000002 # 264;1278
-0.44076760182847963 1:0.1875 2:1 3:0.185921 4:0.153846 5:0 # 107;1050
0.8116116148396797 1:0.625 2:0 3:0.56859201 4:0.5 5:0.30000001 # 194;1318
-0.54458941129066618 1:0.3125 2:1 3:0.245487 4:0.076923102 5:0.1 # 193;1052
-0.8116116148396797 1:0.0625 2:0 3:0.55776203 4:0.65384603 5:0.2 # 264;1001
-0.8116116148396797 1:0.125 2:0 3:0.074007198 4:0.038461499 5:0.1 # 174;1318
-0.8116116148396797 1:0.4375 2:1 3:0.84837502 4:0.346154 5:0.1 # 280;1006
-0.8116116148396797 1:0.25 2:0.111111 3:0.45848399 4:0.23076899 5:0.1 # 139;1277
-0.71450148312307515 1:0.5625 2:0.111111 3:0.74187702 4:0 5:0 # 219;1234
-0.8116116148396797 1:0.3125 2:0.111111 3:0.56859201 4:0.57692301 5:0.5 # 194;1278
-0.8116116148396797 1:0.5 2:0.33333299 3:0.70036101 4:0.346154 5:0.30000001 # 183;1317
-0.8116116148396797 1:0.25 2:0.111111 3:0.420578 4:0.153846 5:0 # 144;1276
-0.8116116148396797 1:0.4375 2:1 3:0.46570399 4:0.30769199 5:0.2 # 239;1054
-0.8116116148396797 1:0.125 2:0.111111 3:0.13718399 4:0.153846 5:0.1 # 147;1278
-0.79730564892148448 1:0.625 2:0.444444 3:0.84837502 4:0.346154 5:0.30000001 # 280;1073
-0.8116116148396797 1:0.25 2:0.111111 3:0.55595702 4:0.57692301 5:0.40000001 # 173;1278
-0.068269902809109842 1:0.25 2:1 3:0.38989201 4:0.346154 5:0 # 134;1030
-0.8116116148396797 1:0.25 2:0.111111 3:0.70036101 4:0.346154 5:0.1 # 183;1276
-0.7999359144325382 1:0.4375 2:1 3:0.46570399 4:0.30769199 5:0.2 # 239;1055
-0.79314440473357983 1:0.5 2:0.444444 3:0.66606498 4:0.23076899 5:0 # 152;1074
-0.8116116148396797 1:0.125 2:0 3:0.185921 4:0.153846 5:0.2 # 107;1318
-0.8116116148396797 1:0.5 2:0.444444 3:0.66606498 4:0.23076899 5:0 # 152;1222
-0.8116116148396797 1:0.4375 2:1 3:0.55776203 4:0.65384603 5:0.40000001 # 264;1050
-0.8116116148396797 1:0.1875 2:0.111111 3:0.395307 4:0.23076899 5:0 # 260;1276
-0.8116116148396797 1:0.375 2:1 3:0.74187702 4:0.57692301 5:0.2 # 115;1037
-0.8116116148396797 1:0.1875 2:0.111111 3:0.36462101 4:0.42307699 5:0.30000001 # 228;1067
-0.8116116148396797 1:0.1875 2:0.111111 3:0.395307 4:0.23076899 5:0 # 260;1277
-0.8116116148396797 1:0.0625 2:1 3:0.395307 4:0.23076899 5:0.40000001 # 260;1287
-0.8116116148396797 1:0.1875 2:0.111111 3:0.25812301 4:0.19230799 5:0.2 # 143;1281
-0.8116116148396797 1:0.125 2:1 3:0.74187702 4:0 5:0 # 219;1004
-0.8116116148396797 1:0.0625 2:0.77777803 3:0.0595668 4:0.076923102 5:0 # 274;1075
-0.75576065148903648 1:0.3125 2:1 3:0.56859201 4:0.57692301 5:0.2 # 194;1005
-0.2322150629775569 1:0.1875 2:0.444444 3:0.12635399 4:0.076923102 5:0 # 191;1201
-0.77352206143596325 1:0.625 2:0.88888901 3:0.68953103 4:0.26923099 5:0.1 # 122;1084
-0.47727023348271225 1:0.1875 2:0.444444 3:0.12635399 4:0.076923102 5:0 # 191;1222
-0.8116116148396797 1:0.0625 2:1 3:0.460289 4:0.30769199 5:0.2 # 204;1007
-0.8116116148396797 1:0.1875 2:0.88888901 3:0.19494601 4:0 5:0 # 207;1076
-0.64185180093413963 1:0.0625 2:0.77777803 3:0.0595668 4:0.076923102 5:0 # 274;1076
-0.53955130055736811 1:0.375 2:1 3:0.55595702 4:0.57692301 5:0.30000001 # 173;1056
-0.39869572204513648 1:0.0625 2:1 3:0.38989201 4:0.346154 5:0.2 # 134;1050
-0.028902714293270293 1:0.4375 2:1 3:0.76534301 4:0.65384603 5:0.40000001 # 151;1006
-0.017959932093041031 1:0.25 2:1 3:0.38989201 4:0.346154 5:0 # 134;1025
