SVM-light Version V6.02
3 # kernel type
3 # kernel parameter -d 
1 # kernel parameter -g 
0.5 # kernel parameter -s 
1 # kernel parameter -r 
empty# kernel parameter -u 
5 # highest feature index 
5117 # number of training documents 
497 # number of support vectors plus 1 
31.064286 # threshold b, each following line is a SV (starting with alpha*y)
-6.5904423654593902 1:0.375 2:0.111111 3:0.68230999 4:0.57692301 5:0.2 # 126;1278
6.5904423654593902 1:0.4375 2:0 3:0.29963899 4:0.038461499 5:0 # 266;1001
-6.5904423654593902 1:0.0625 2:1 3:0.052346598 4:0 5:0 # 246;1039
6.5904423654593902 1:0.5 2:1 3:0.71660602 4:0.5 5:0.30000001 # 118;1293
-6.5904423654593902 1:0.75 2:0 3:0.75631797 4:0 5:0 # 170;1318
6.5904423654593902 1:0.125 2:1 3:0.45667899 4:0.5 5:0.30000001 # 300;1293
-6.5904423654593902 1:0.0625 2:1 3:0.052346598 4:0 5:0 # 246;1017
6.5904423654593902 1:0.25 2:0 3:0.67869997 4:0.038461499 5:0 # 232;1283
-6.5904423654593902 1:0.5 2:0.111111 3:0.96570402 4:0.76923102 5:0.89999998 # 102;1278
6.5904423654593902 1:0.125 2:0.111111 3:0.128159 4:0.038461499 5:0 # 221;1234
-6.5904423654593902 1:0.0625 2:1 3:0.052346598 4:0 5:0 # 246;1025
6.5904423654593902 1:0.4375 2:1 3:0.95487398 4:0.69230801 5:0.5 # 287;1293
-6.5904423654593902 1:0.25 2:0 3:0.96570402 4:0.76923102 5:0.2 # 102;1001
6.5904423654593902 1:0.375 2:1 3:0.68050498 4:0.76923102 5:0.30000001 # 199;1039
-6.5904423654593902 1:0.0625 2:0.88888901 3:0.036101099 4:0 5:0 # 226;1285
6.5904423654593902 1:0.3125 2:1 3:0.95487398 4:0.73076898 5:0.1 # 287;1057
-6.5904423654593902 1:0.125 2:0.33333299 3:0.85559601 4:0.69230801 5:0.80000001 # 164;1316
6.5904423654593902 1:0.3125 2:0.88888901 3:0.62454897 4:0.384615 5:0 # 116;1084
-6.5904423654593902 1:0.5625 2:0.111111 3:0.95487398 4:0.76923102 5:0.69999999 # 287;1233
6.5904423654593902 1:0.375 2:1 3:0.87545103 4:0.26923099 5:0 # 223;1013
-6.5904423654593902 1:0.0625 2:1 3:0.0595668 4:0 5:0 # 168;1287
6.5904423654593902 1:0.4375 2:0.444444 3:0.62454897 4:0.384615 5:0.2 # 116;1222
-6.5904423654593902 1:0.0625 2:1 3:0.052346598 4:0 5:0 # 246;1030
6.5904423654593902 1:0.125 2:0 3:0.135379 4:0.076923102 5:0.2 # 234;1001
-6.5904423654593902 1:0.5 2:0 3:0.87545103 4:0.30769199 5:0 # 223;1318
6.5904423654593902 1:0.3125 2:0.88888901 3:0.62454897 4:0.384615 5:0.1 # 116;1081
-6.5904423654593902 1:0.375 2:0.111111 3:0.96570402 4:0.76923102 5:0.89999998 # 102;1233
6.5904423654593902 1:0.0625 2:0.111111 3:0.135379 4:0.076923102 5:0.2 # 234;1067
-6.5904423654593902 1:0.0625 2:1 3:0.052346598 4:0 5:0 # 246;1032
6.5904423654593902 1:0.125 2:0 3:0.29061401 4:0.115385 5:0.1 # 198;1318
-6.5904423654593902 1:0.375 2:0.111111 3:0.95487398 4:0.76923102 5:0.89999998 # 287;1035
6.5904423654593902 1:0.1875 2:1 3:0.68050498 4:0.76923102 5:0.1 # 199;1057
-6.5904423654593902 1:0.4375 2:0.111111 3:0.95487398 4:0.76923102 5:0.69999999 # 287;1278
6.5904423654593902 1:0.3125 2:1 3:0.96570402 4:0.73076898 5:0.30000001 # 102;1039
-6.5904423654593902 1:0.0625 2:1 3:0.052346598 4:0 5:0 # 246;1033
6.5904423654593902 1:0.1875 2:0 3:0.33032501 4:0.26923099 5:0.40000001 # 268;1283
-6.5904423654593902 1:0.25 2:0.111111 3:0.93140799 4:0.80769199 5:0.89999998 # 135;1035
6.5904423654593902 1:0.3125 2:1 3:0.75090301 4:0.69230801 5:0.2 # 205;1039
-6.5904423654593902 1:0.0625 2:1 3:0.052346598 4:0 5:0 # 246;1034
6.5904423654593902 1:0.375 2:1 3:0.96570402 4:0.73076898 5:0.40000001 # 102;1057
-6.5904423654593902 1:0.3125 2:0.111111 3:0.93140799 4:0.80769199 5:0.69999999 # 135;1233
6.5904423654593902 1:0.375 2:1 3:0.61191303 4:0.5 5:0.40000001 # 124;1057
-6.5904423654593902 1:0.0625 2:1 3:0.052346598 4:0 5:0 # 246;1036
6.5904423654593902 1:0.1875 2:0.111111 3:0.149819 4:0.19230799 5:0.2 # 277;1067
-6.5904423654593902 1:0.375 2:0 3:0.85559601 4:0.69230801 5:0.30000001 # 164;1283
6.5904423654593902 1:0.125 2:1 3:0.79602897 4:0.19230799 5:0.2 # 137;1293
-6.5904423654593902 1:0.0625 2:1 3:0.052346598 4:0 5:0 # 246;1037
6.5904423654593902 1:0.5625 2:1 3:0.95487398 4:0.73076898 5:0.1 # 287;1039
-6.5904423654593902 1:0.1875 2:0.111111 3:0.93140799 4:0.80769199 5:0.69999999 # 135;1278
6.5904423654593902 1:0.375 2:1 3:0.64981902 4:0.615385 5:0.40000001 # 182;1293
-6.5904423654593902 1:0.4375 2:0.111111 3:0.93140799 4:0.80769199 5:0.30000001 # 135;1276
6.5904423654593902 1:0.375 2:1 3:0.75090301 4:0.69230801 5:0.69999999 # 205;1293
-6.5904423654593902 1:0.0625 2:1 3:0.052346598 4:0 5:0 # 246;1038
6.5904423654593902 1:0.125 2:0 3:0.17148 4:0.23076899 5:0 # 290;1283
-6.5904423654593902 1:0.4375 2:0.111111 3:0.85559601 4:0.69230801 5:0.80000001 # 164;1035
6.5904423654593902 1:0.4375 2:1 3:0.85559601 4:0.65384603 5:0.40000001 # 164;1013
-6.5904423654593902 1:0.3125 2:0.111111 3:0.96570402 4:0.76923102 5:0.40000001 # 102;1276
6.5904423654593902 1:0.625 2:1 3:0.76534301 4:0.46153799 5:0.60000002 # 121;1293
-6.5904423654593902 1:0.0625 2:1 3:0.0595668 4:0 5:0 # 168;1284
6.5904423654593902 1:0.5 2:1 3:0.68050498 4:0.69230801 5:0.60000002 # 199;1293
-6.5904423654593902 1:0.5 2:0.111111 3:0.75090301 4:0.73076898 5:0.80000001 # 205;1233
6.5904423654593902 1:0.5625 2:1 3:0.96570402 4:0.73076898 5:0.40000001 # 102;1013
-6.5904423654593902 1:0.0625 2:1 3:0.0595668 4:0 5:0 # 168;1285
6.5904423654593902 1:0.6875 2:1 3:0.96570402 4:0.69230801 5:0.69999999 # 102;1293
-6.5904423654593902 1:0.125 2:0 3:0.75090301 4:0.73076898 5:0.60000002 # 205;1001
6.5904423654593902 1:0.625 2:1 3:0.93140799 4:0.73076898 5:0.5 # 135;1293
-6.5904423654593902 1:0.0625 2:1 3:0.0595668 4:0 5:0 # 168;1286
6.5904423654593902 1:0.625 2:1 3:0.93140799 4:0.76923102 5:0.2 # 135;1039
-6.5904423654593902 1:0.25 2:0.111111 3:0.96570402 4:0.76923102 5:0.2 # 102;1035
6.5904423654593902 1:0.5625 2:1 3:0.68592101 4:0.5 5:0.5 # 195;1293
-6.5904423654593902 1:0.1875 2:0 3:0.68592101 4:0.65384603 5:0.89999998 # 195;1318
6.5904423654593902 1:0.1875 2:0 3:0.229242 4:0.115385 5:0 # 133;1001
-6.5904423654593902 1:0.1875 2:0.111111 3:0.96570402 4:0.76923102 5:0.2 # 102;1067
6.5904423654593902 1:0.5625 2:1 3:0.85559601 4:0.615385 5:0.30000001 # 164;1057
-6.5904423654593902 1:0.0625 2:1 3:0.0595668 4:0 5:0 # 168;1288
6.5904423654593902 1:0.5625 2:1 3:0.85559601 4:0.65384603 5:0.2 # 164;1293
-6.5904423654593902 1:0.375 2:0.111111 3:0.68050498 4:0.80769199 5:0.89999998 # 199;1278
6.5904423654593902 1:0.3125 2:1 3:0.68230999 4:0.53846198 5:0.30000001 # 126;1013
-6.5904423654593902 1:0.0625 2:1 3:0.0595668 4:0 5:0 # 168;1289
6.5904423654593902 1:0.8125 2:1 3:0.95487398 4:0.73076898 5:0.1 # 287;1013
-6.5904423654593902 1:0.625 2:0.111111 3:0.76534301 4:0.53846198 5:0.80000001 # 121;1278
6.5904423654593902 1:0.0625 2:0.111111 3:0.149819 4:0.23076899 5:0.1 # 277;1281
-6.5904423654593902 1:0.1875 2:0.111111 3:0.95487398 4:0.76923102 5:0.2 # 287;1276
6.5904423654593902 1:0.625 2:1 3:0.64981902 4:0.53846198 5:0.30000001 # 182;1013
-6.5904423654593902 1:0.0625 2:1 3:0.0595668 4:0 5:0 # 168;1290
6.5904423654593902 1:0.5 2:1 3:0.75090301 4:0.69230801 5:0.1 # 205;1057
-6.5904423654593902 1:0.4375 2:0 3:0.68230999 4:0.57692301 5:0.2 # 126;1318
6.5904423654593902 1:0.3125 2:1 3:0.68592101 4:0.615385 5:0.2 # 195;1039
-6.5904423654593902 1:0.0625 2:1 3:0.0595668 4:0 5:0 # 168;1291
6.5904423654593902 1:0.4375 2:1 3:0.75090301 4:0.69230801 5:0.1 # 205;1013
-6.5904423654593902 1:0.375 2:0.111111 3:0.85559601 4:0.69230801 5:0.30000001 # 164;1233
6.5904423654593902 1:0.625 2:1 3:0.68230999 4:0.53846198 5:0.2 # 126;1039
-6.5904423654593902 1:0.0625 2:1 3:0.0595668 4:0 5:0 # 168;1292
6.5904423654593902 1:0.4375 2:0.88888901 3:0.93140799 4:0.76923102 5:0.2 # 135;1081
-6.5904423654593902 1:0.3125 2:0.111111 3:0.75090301 4:0.73076898 5:0.80000001 # 205;1278
6.5904423654593902 1:0.4375 2:1 3:0.71660602 4:0.5 5:0.2 # 118;1057
-6.5904423654593902 1:0.0625 2:1 3:0.0595668 4:0 5:0 # 168;1293
6.5904423654593902 1:0.125 2:0.111111 3:0.17148 4:0.23076899 5:0.2 # 290;1067
-6.5904423654593902 1:0.3125 2:0.111111 3:0.75090301 4:0.73076898 5:0.80000001 # 205;1281
6.5904423654593902 1:0.4375 2:1 3:0.61010802 4:0.57692301 5:0.2 # 256;1293
-6.5904423654593902 1:0.0625 2:1 3:0.070397101 4:0 5:0 # 233;1032
6.5904423654593902 1:0.5625 2:0.88888901 3:0.96570402 4:0.69230801 5:0.2 # 102;1081
-6.5904423654593902 1:0.375 2:0.111111 3:0.75090301 4:0.73076898 5:0.60000002 # 205;1035
6.5904423654593902 1:0.3125 2:1 3:0.55595702 4:0.46153799 5:0.30000001 # 142;1293
-6.5904423654593902 1:0.0625 2:1 3:0.070397101 4:0 5:0 # 233;1030
6.5904423654593902 1:0.5625 2:0.88888901 3:0.64981902 4:0.57692301 5:0.40000001 # 182;1084
-6.5904423654593902 1:0.3125 2:0.111111 3:0.85559601 4:0.69230801 5:0.30000001 # 164;1281
6.5904423654593902 1:0.25 2:1 3:0.68592101 4:0.615385 5:0.1 # 195;1013
-6.5904423654593902 1:0.125 2:1 3:0.070397101 4:0 5:0 # 233;1017
6.5904423654593902 1:0.125 2:0 3:0.26534301 4:0.23076899 5:0.1 # 259;1283
-6.5904423654593902 1:0.25 2:0.111111 3:0.85559601 4:0.69230801 5:0.30000001 # 164;1278
6.5904423654593902 1:0.75 2:1 3:0.61010802 4:0.53846198 5:0.2 # 256;1057
-6.5904423654593902 1:0.125 2:1 3:0.070397101 4:0 5:0 # 233;1025
6.5904423654593902 1:0.375 2:1 3:0.61010802 4:0.53846198 5:0.2 # 256;1013
-6.5904423654593902 1:0.5 2:0.111111 3:0.76534301 4:0.53846198 5:0.80000001 # 121;1233
6.5904423654593902 1:0.5625 2:1 3:0.62454897 4:0.346154 5:0.30000001 # 116;1293
-6.5904423654593902 1:0.125 2:1 3:0.070397101 4:0 5:0 # 233;1033
6.5904423654593902 1:0.25 2:0 3:0.229242 4:0.115385 5:0 # 133;1318
-6.5904423654593902 1:0.375 2:0 3:0.61010802 4:0.615385 5:0.30000001 # 256;1318
6.5904423654593902 1:0.375 2:1 3:0.61191303 4:0.5 5:0.2 # 124;1293
-6.5904423654593902 1:0.125 2:1 3:0.070397101 4:0 5:0 # 233;1034
6.5904423654593902 1:0.8125 2:0.88888901 3:0.85559601 4:0.615385 5:0.30000001 # 164;1084
-6.5904423654593902 1:0.5 2:0 3:0.79783398 4:0.30769199 5:0.30000001 # 229;1318
6.5904423654593902 1:0.6875 2:0.88888901 3:0.96570402 4:0.65384603 5:0.2 # 102;1084
-6.5904423654593902 1:0.5 2:0 3:0.86101103 4:0.23076899 5:0 # 249;1001
6.5904423654593902 1:0.4375 2:0.88888901 3:0.75090301 4:0.69230801 5:0.2 # 205;1081
-6.5904423654593902 1:0.125 2:1 3:0.070397101 4:0 5:0 # 233;1036
6.5904423654593902 1:0.25 2:0 3:0.29061401 4:0.115385 5:0.1 # 198;1283
-6.5904423654593902 1:0.1875 2:0 3:0.68592101 4:0.65384603 5:0.30000001 # 195;1001
6.5904423654593902 1:0.5625 2:1 3:0.71660602 4:0.46153799 5:0.1 # 118;1013
-6.5904423654593902 1:0.125 2:1 3:0.070397101 4:0 5:0 # 233;1037
6.5904423654593902 1:0.1875 2:0.111111 3:0.149819 4:0.23076899 5:0.1 # 277;1234
-6.5904423654593902 1:0.375 2:0.111111 3:0.68592101 4:0.65384603 5:0.89999998 # 195;1278
6.5904423654593902 1:0.1875 2:1 3:0.61010802 4:0.57692301 5:0.1 # 256;1039
-6.5904423654593902 1:0.125 2:1 3:0.070397101 4:0 5:0 # 233;1038
6.5904423654593902 1:0.625 2:0.88888901 3:0.68050498 4:0.73076898 5:0.2 # 199;1081
-6.5904423654593902 1:0.1875 2:0.111111 3:0.85559601 4:0.69230801 5:0.2 # 164;1277
6.5904423654593902 1:0.5 2:1 3:0.86101103 4:0.19230799 5:0.1 # 249;1013
-6.5904423654593902 1:0.125 2:1 3:0.070397101 4:0 5:0 # 233;1039
6.5904423654593902 1:0.5 2:0.88888901 3:0.93140799 4:0.73076898 5:0 # 135;1084
-6.5904423654593902 1:0.125 2:0.111111 3:0.68050498 4:0.80769199 5:0.89999998 # 199;1233
6.5904423654593902 1:0.4375 2:1 3:0.86101103 4:0.19230799 5:0.1 # 249;1039
-6.5904423654593902 1:0.125 2:1 3:0.093862802 4:0 5:0 # 215;1005
6.5904423654593902 1:0.1875 2:1 3:0.61191303 4:0.53846198 5:0.1 # 250;1057
-6.5904423654593902 1:0.125 2:0.111111 3:0.85559601 4:0.69230801 5:0.2 # 164;1276
6.5904423654593902 1:0.1875 2:1 3:0.46570399 4:0.19230799 5:0.40000001 # 119;1293
-6.5904423654593902 1:0.125 2:1 3:0.093862802 4:0 5:0 # 215;1010
6.5904423654593902 1:0.25 2:0 3:0.32491001 4:0.076923102 5:0 # 201;1318
-6.5904423654593902 1:0.25 2:0 3:0.68230999 4:0.57692301 5:0.2 # 126;1283
6.5904423654593902 1:0.375 2:1 3:0.76534301 4:0.5 5:0 # 121;1039
-6.5904423654593902 1:0.125 2:1 3:0.093862802 4:0 5:0 # 215;1012
6.5904423654593902 1:0.375 2:0.88888901 3:0.68230999 4:0.53846198 5:0.2 # 126;1081
-6.5904423654593902 1:0.4375 2:0.111111 3:0.76534301 4:0.53846198 5:0.2 # 121;1035
6.5904423654593902 1:0.4375 2:1 3:0.64981902 4:0.615385 5:0 # 182;1039
-6.5904423654593902 1:0.1875 2:1 3:0.093862802 4:0 5:0 # 215;1004
6.5904423654593902 1:0.4375 2:0.88888901 3:0.68050498 4:0.76923102 5:0.1 # 199;1084
-6.5904423654593902 1:0.1875 2:0.111111 3:0.68050498 4:0.80769199 5:0.40000001 # 199;1276
6.5904423654593902 1:0.625 2:1 3:0.79783398 4:0.26923099 5:0.1 # 229;1013
-6.5904423654593902 1:0.1875 2:1 3:0.093862802 4:0 5:0 # 215;1006
6.5904423654593902 1:0.125 2:0 3:0.35559601 4:0.23076899 5:0.1 # 247;1318
-6.5904423654593902 1:0.5625 2:0 3:0.79241902 4:0.153846 5:0.1 # 217;1001
6.5904423654593902 1:0.3125 2:1 3:0.61191303 4:0.5 5:0.1 # 124;1039
-6.5904423654593902 1:0.1875 2:0.111111 3:0.75090301 4:0.73076898 5:0.30000001 # 205;1276
6.5904423654593902 1:0.5 2:1 3:0.79783398 4:0.26923099 5:0.1 # 229;1057
-6.5904423654593902 1:0.1875 2:1 3:0.093862802 4:0 5:0 # 215;1007
6.5904423654593902 1:0.375 2:1 3:0.70577598 4:0.384615 5:0.1 # 125;1039
-6.5904423654593902 1:0.1875 2:1 3:0.093862802 4:0 5:0 # 215;1008
6.5904423654593902 1:0.375 2:1 3:0.47653401 4:0.346154 5:0.30000001 # 188;1039
-6.5904423654593902 1:0.125 2:0.111111 3:0.68050498 4:0.80769199 5:0.60000002 # 199;1067
6.5904423654593902 1:0.5625 2:1 3:0.76534301 4:0.42307699 5:0 # 121;1013
-6.5904423654593902 1:0.1875 2:1 3:0.093862802 4:0 5:0 # 215;1009
6.5904423654593902 1:0.1875 2:0.111111 3:0.26534301 4:0.23076899 5:0.1 # 259;1234
-6.5904423654593902 1:0.25 2:0 3:0.87545103 4:0.30769199 5:0 # 223;1283
6.5904423654593902 1:0.1875 2:1 3:0.45667899 4:0.5 5:0.2 # 300;1057
-6.5904423654593902 1:0.1875 2:1 3:0.093862802 4:0 5:0 # 215;1011
6.5904423654593902 1:0.3125 2:0.88888901 3:0.85559601 4:0.615385 5:0 # 164;1081
-6.5904423654593902 1:0.375 2:0.111111 3:0.76534301 4:0.53846198 5:0.2 # 121;1067
6.5904423654593902 1:0.5 2:1 3:0.70577598 4:0.346154 5:0.1 # 125;1293
-6.5904423654593902 1:0.1875 2:1 3:0.093862802 4:0 5:0 # 215;1013
6.5904423654593902 1:0.3125 2:0.88888901 3:0.68592101 4:0.615385 5:0.1 # 195;1084
-6.5904423654593902 1:0.1875 2:0 3:0.71660602 4:0.53846198 5:0.40000001 # 118;1318
6.5904423654593902 1:0.375 2:1 3:0.45667899 4:0.5 5:0.2 # 300;1039
-6.5904423654593902 1:0.0625 2:0.88888901 3:0.036101099 4:0 5:0 # 226;1286
6.5904423654593902 1:0.125 2:0 3:0.46570399 4:0.19230799 5:0.40000001 # 119;1283
-6.5904423654593902 1:0.25 2:0.111111 3:0.68592101 4:0.65384603 5:0.89999998 # 195;1233
6.5904423654593902 1:0.25 2:1 3:0.79602897 4:0.19230799 5:0.1 # 137;1057
-6.5904423654593902 1:0.625 2:0.111111 3:0.79783398 4:0.30769199 5:0.30000001 # 229;1233
6.5904423654593902 1:0.1875 2:0.33333299 3:0.17148 4:0.23076899 5:0.2 # 290;1319
-6.5904423654593902 1:0.0625 2:0.88888901 3:0.036101099 4:0 5:0 # 226;1287
6.5904423654593902 1:0.1875 2:0 3:0.35559601 4:0.23076899 5:0.1 # 247;1283
-6.5904423654593902 1:0.3125 2:0.111111 3:0.68592101 4:0.65384603 5:0.30000001 # 195;1276
6.5904423654593902 1:0.4375 2:0.88888901 3:0.68592101 4:0.57692301 5:0.1 # 195;1081
-6.5904423654593902 1:0.0625 2:0.88888901 3:0.036101099 4:0 5:0 # 226;1288
6.5904423654593902 1:0.1875 2:0.33333299 3:0.17148 4:0.23076899 5:0.2 # 290;1222
-6.5904423654593902 1:0.3125 2:0.111111 3:0.68592101 4:0.65384603 5:0.30000001 # 195;1277
6.5904423654593902 1:0.375 2:1 3:0.55595702 4:0.46153799 5:0.1 # 142;1013
-6.5904423654593902 1:0.0625 2:0.88888901 3:0.036101099 4:0 5:0 # 226;1289
6.5904423654593902 1:0.3125 2:1 3:0.55595702 4:0.46153799 5:0.1 # 142;1057
-6.5904423654593902 1:0.0625 2:0.111111 3:0.68050498 4:0.80769199 5:0.60000002 # 199;1035
6.5904423654593902 1:0.25 2:0.88888901 3:0.61010802 4:0.57692301 5:0.1 # 256;1081
-6.5904423654593902 1:0.0625 2:0.88888901 3:0.036101099 4:0 5:0 # 226;1290
6.5904423654593902 1:0.25 2:0.33333299 3:0.149819 4:0.19230799 5:0.2 # 277;1319
-6.5904423654593902 1:0.1875 2:0.33333299 3:0.85559601 4:0.69230801 5:0.80000001 # 164;1317
6.5904423654593902 1:0.4375 2:1 3:0.467509 4:0.384615 5:0.2 # 211;1013
-6.5904423654593902 1:0.625 2:0 3:0.776173 4:0.076923102 5:0 # 212;1001
6.5904423654593902 1:0.3125 2:0.88888901 3:0.47653401 4:0.346154 5:0.30000001 # 188;1081
-6.5904423654593902 1:0.0625 2:0.88888901 3:0.036101099 4:0 5:0 # 226;1291
6.5904423654593902 1:0.25 2:0 3:0.42418799 4:0.076923102 5:0 # 131;1283
-6.5904423654593902 1:0.0625 2:0.88888901 3:0.036101099 4:0 5:0 # 226;1292
6.5904423654593902 1:0.25 2:0.111111 3:0.26534301 4:0.23076899 5:0.1 # 259;1067
-6.5904423654593902 1:0.0625 2:0.88888901 3:0.036101099 4:0 5:0 # 226;1293
6.5904423654593902 1:0.1875 2:0.88888901 3:0.45667899 4:0.5 5:0.2 # 300;1081
-6.5904423654593902 1:0.0625 2:0.88888901 3:0.052346598 4:0 5:0 # 246;1002
6.5904423654593902 1:0.25 2:1 3:0.467509 4:0.384615 5:0.2 # 211;1057
-6.5904423654593902 1:0.375 2:0.111111 3:0.87545103 4:0.30769199 5:0 # 223;1233
6.5904423654593902 1:0.3125 2:1 3:0.48014399 4:0.346154 5:0.2 # 132;1039
-6.5904423654593902 1:0.0625 2:0.88888901 3:0.052346598 4:0 5:0 # 246;1003
6.5904423654593902 1:0.4375 2:0.88888901 3:0.86101103 4:0.19230799 5:0.1 # 249;1084
-6.5904423654593902 1:0.375 2:0.111111 3:0.87545103 4:0.30769199 5:0 # 223;1234
6.5904423654593902 1:0.4375 2:0.88888901 3:0.61191303 4:0.53846198 5:0.1 # 250;1084
-6.5904423654593902 1:0.0625 2:0.88888901 3:0.052346598 4:0 5:0 # 246;1075
6.5904423654593902 1:0.375 2:0.88888901 3:0.70577598 4:0.384615 5:0.1 # 125;1081
-6.5904423654593902 1:0.375 2:0.111111 3:0.61010802 4:0.615385 5:0.69999999 # 256;1035
6.5904423654593902 1:0.5625 2:0.88888901 3:0.68230999 4:0.46153799 5:0.1 # 126;1084
-6.5904423654593902 1:0.0625 2:0.88888901 3:0.052346598 4:0 5:0 # 246;1076
6.5904423654593902 1:0.3125 2:0 3:0.33032501 4:0.23076899 5:0.30000001 # 268;1318
-6.5904423654593902 1:0.4375 2:0.111111 3:0.61191303 4:0.57692301 5:0.5 # 250;1035
6.5904423654593902 1:0.375 2:1 3:0.581227 4:0.19230799 5:0.2 # 248;1057
-6.5904423654593902 1:0.0625 2:0.88888901 3:0.052346598 4:0 5:0 # 246;1077
6.5904423654593902 1:0.5 2:1 3:0.77436799 4:0.23076899 5:0 # 130;1013
-6.5904423654593902 1:0.5 2:0.111111 3:0.86101103 4:0.23076899 5:0.2 # 249;1233
6.5904423654593902 1:0.3125 2:1 3:0.35920599 4:0.30769199 5:0.30000001 # 202;1039
-6.5904423654593902 1:0.0625 2:0.88888901 3:0.052346598 4:0 5:0 # 246;1078
6.5904423654593902 1:0.6875 2:1 3:0.79602897 4:0.19230799 5:0 # 137;1039
-6.5904423654593902 1:0.5 2:0.33333299 3:0.96570402 4:0.76923102 5:0.2 # 102;1315
6.5904423654593902 1:0.1875 2:0.88888901 3:0.467509 4:0.384615 5:0.2 # 211;1084
-6.5904423654593902 1:0.0625 2:0.88888901 3:0.052346598 4:0 5:0 # 246;1079
6.5904423654593902 1:0.1875 2:0 3:0.43682301 4:0.23076899 5:0.2 # 261;1001
-6.5904423654593902 1:0.5 2:0.33333299 3:0.96570402 4:0.76923102 5:0.2 # 102;1317
6.5904423654593902 1:0.3125 2:1 3:0.45667899 4:0.46153799 5:0.1 # 300;1013
-6.5904423654593902 1:0.5 2:0.33333299 3:0.96570402 4:0.76923102 5:0.2 # 102;1319
6.5904423654593902 1:0.25 2:0.444444 3:0.135379 4:0.076923102 5:0.2 # 234;1222
-6.5904423654593902 1:0.0625 2:0.88888901 3:0.052346598 4:0 5:0 # 246;1080
6.5904423654593902 1:0.25 2:0 3:0.50541502 4:0.038461499 5:0 # 105;1318
-6.5904423654593902 1:0.5 2:0.111111 3:0.86101103 4:0.23076899 5:0.2 # 249;1234
6.5904423654593902 1:0.5625 2:0.88888901 3:0.79602897 4:0.19230799 5:0.1 # 137;1084
-6.5904423654593902 1:0.0625 2:0.88888901 3:0.052346598 4:0 5:0 # 246;1081
6.5904423654593902 1:0.3125 2:1 3:0.59927797 4:0.23076899 5:0.1 # 258;1293
-6.5904423654593902 1:0.3125 2:0 3:0.79783398 4:0.30769199 5:0.30000001 # 229;1283
6.5904423654593902 1:0.375 2:1 3:0.59927797 4:0.23076899 5:0.1 # 258;1039
-6.5904423654593902 1:0.0625 2:1 3:0.117329 4:0.038461499 5:0 # 257;1017
6.5904423654593902 1:0.0625 2:0 3:0.37364599 4:0.46153799 5:0.40000001 # 172;1001
-6.5904423654593902 1:0.1875 2:0.111111 3:0.64981902 4:0.69230801 5:0.60000002 # 182;1233
6.5904423654593902 1:0.625 2:1 3:0.77436799 4:0.153846 5:0 # 130;1293
-6.5904423654593902 1:0.0625 2:0.88888901 3:0.0595668 4:0 5:0 # 168;1040
6.5904423654593902 1:0.3125 2:1 3:0.467509 4:0.384615 5:0.1 # 211;1039
-6.5904423654593902 1:0.625 2:0.111111 3:0.79241902 4:0.153846 5:0.1 # 217;1035
6.5904423654593902 1:0.5 2:1 3:0.68050498 4:0.115385 5:0.1 # 141;1293
-6.5904423654593902 1:0.0625 2:1 3:0.117329 4:0.038461499 5:0 # 257;1025
6.5904423654593902 1:0.625 2:0.88888901 3:0.61191303 4:0.384615 5:0.1 # 124;1084
-6.5904423654593902 1:0.4375 2:0.33333299 3:0.96570402 4:0.76923102 5:0.2 # 102;1316
6.5904423654593902 1:0.4375 2:0.88888901 3:0.35920599 4:0.30769199 5:0.30000001 # 202;1081
-6.5904423654593902 1:0.0625 2:1 3:0.117329 4:0.038461499 5:0 # 257;1030
6.5904423654593902 1:0.25 2:0 3:0.42960301 4:0.23076899 5:0.30000001 # 192;1001
-6.5904423654593902 1:0.3125 2:0.33333299 3:0.95487398 4:0.76923102 5:0.89999998 # 287;1315
6.5904423654593902 1:0.25 2:1 3:0.37364599 4:0.46153799 5:0.1 # 172;1057
-6.5904423654593902 1:0.0625 2:0.88888901 3:0.0595668 4:0 5:0 # 168;1041
6.5904423654593902 1:0.125 2:0.88888901 3:0.467509 4:0.384615 5:0.1 # 211;1081
-6.5904423654593902 1:0.3125 2:0.33333299 3:0.95487398 4:0.76923102 5:0.89999998 # 287;1317
6.5904423654593902 1:0.25 2:1 3:0.37364599 4:0.46153799 5:0.1 # 172;1039
-6.5904423654593902 1:0.0625 2:0.88888901 3:0.0595668 4:0 5:0 # 168;1042
6.5904423654593902 1:0.375 2:1 3:0.581227 4:0.19230799 5:0.1 # 248;1039
-6.5904423654593902 1:0.0625 2:0.88888901 3:0.0595668 4:0 5:0 # 168;1043
6.5904423654593902 1:0.25 2:1 3:0.43682301 4:0.23076899 5:0.2 # 261;1293
-6.5904423654593902 1:0.25 2:0.33333299 3:0.95487398 4:0.76923102 5:0.89999998 # 287;1316
6.5904423654593902 1:0.3125 2:0.88888901 3:0.59927797 4:0.23076899 5:0.1 # 258;1081
-6.5904423654593902 1:0.0625 2:0.88888901 3:0.0595668 4:0 5:0 # 168;1044
6.5904423654593902 1:0.1875 2:0.33333299 3:0.35920599 4:0.346154 5:0.2 # 202;1319
-6.5904423654593902 1:0.3125 2:0.111111 3:0.71660602 4:0.53846198 5:0.40000001 # 118;1035
6.5904423654593902 1:0.375 2:1 3:0.55956697 4:0.19230799 5:0.1 # 273;1057
-6.5904423654593902 1:0.0625 2:0.88888901 3:0.0595668 4:0 5:0 # 168;1045
6.5904423654593902 1:0.25 2:0 3:0.42960301 4:0.23076899 5:0.1 # 192;1318
-6.5904423654593902 1:0.25 2:0.111111 3:0.76534301 4:0.53846198 5:0.1 # 121;1276
6.5904423654593902 1:0.1875 2:0.88888901 3:0.37364599 4:0.46153799 5:0.1 # 172;1084
-6.5904423654593902 1:0.0625 2:0.88888901 3:0.0595668 4:0 5:0 # 168;1046
6.5904423654593902 1:0.25 2:0.33333299 3:0.26534301 4:0.23076899 5:0.1 # 259;1319
-6.5904423654593902 1:0.25 2:0.111111 3:0.76534301 4:0.53846198 5:0.1 # 121;1277
6.5904423654593902 1:0.125 2:0.66666698 3:0.26534301 4:0.23076899 5:0.2 # 259;1013
-6.5904423654593902 1:0.0625 2:0.88888901 3:0.0595668 4:0 5:0 # 168;1047
6.5904423654593902 1:0.5 2:1 3:0.776173 4:0.038461499 5:0 # 212;1293
-6.5904423654593902 1:0.3125 2:0.111111 3:0.87545103 4:0.30769199 5:0.69999999 # 223;1035
6.5904423654593902 1:0.3125 2:1 3:0.59927797 4:0.23076899 5:0 # 258;1057
-6.5904423654593902 1:0.0625 2:0.88888901 3:0.0595668 4:0 5:0 # 168;1084
6.5904423654593902 1:0.3125 2:0 3:0.46570399 4:0.153846 5:0.30000001 # 119;1318
-6.5904423654593902 1:0.5 2:0.111111 3:0.79602897 4:0.23076899 5:0.1 # 137;1276
6.5904423654593902 1:0.25 2:1 3:0.35559601 4:0.23076899 5:0.2 # 247;1039
-6.5904423654593902 1:0.0625 2:1 3:0.117329 4:0.038461499 5:0 # 257;1032
6.5904423654593902 1:0.25 2:0.111111 3:0.43682301 4:0.23076899 5:0.2 # 261;1067
-6.5904423654593902 1:0.1875 2:0.33333299 3:0.93140799 4:0.80769199 5:0.89999998 # 135;1315
6.5904423654593902 1:0.5 2:0.88888901 3:0.55595702 4:0.42307699 5:0 # 142;1081
-6.5904423654593902 1:0.0625 2:1 3:0.117329 4:0.038461499 5:0 # 257;1033
6.5904423654593902 1:0.4375 2:0.88888901 3:0.581227 4:0.19230799 5:0.1 # 248;1081
-6.5904423654593902 1:0.4375 2:0.111111 3:0.79783398 4:0.30769199 5:0.30000001 # 229;1035
6.5904423654593902 1:0.25 2:1 3:0.48014399 4:0.346154 5:0 # 132;1013
-6.5904423654593902 1:0.0625 2:1 3:0.117329 4:0.038461499 5:0 # 257;1034
6.5904423654593902 1:0.25 2:0.111111 3:0.35920599 4:0.30769199 5:0.1 # 202;1067
-6.5904423654593902 1:0.375 2:0.111111 3:0.61191303 4:0.57692301 5:0.60000002 # 250;1233
6.5904423654593902 1:0.4375 2:0.88888901 3:0.55956697 4:0.19230799 5:0.1 # 273;1084
-6.5904423654593902 1:0.0625 2:1 3:0.117329 4:0.038461499 5:0 # 257;1036
6.5904423654593902 1:0.3125 2:0.111111 3:0.46570399 4:0.19230799 5:0.40000001 # 119;1281
-6.5904423654593902 1:0.3125 2:0.111111 3:0.87545103 4:0.30769199 5:0 # 223;1281
6.5904423654593902 1:0.125 2:0.444444 3:0.0397112 4:0 5:0 # 299;1222
-6.5904423654593902 1:0.0625 2:1 3:0.117329 4:0.038461499 5:0 # 257;1037
6.5904423654593902 1:0.3125 2:0.88888901 3:0.776173 4:0.038461499 5:0 # 212;1081
-6.5904423654593902 1:0.1875 2:0.33333299 3:0.93140799 4:0.80769199 5:0.89999998 # 135;1316
6.5904423654593902 1:0.4375 2:0.88888901 3:0.581227 4:0.153846 5:0.1 # 248;1084
-6.5904423654593902 1:0.125 2:1 3:0.117329 4:0.038461499 5:0 # 257;1284
6.5904423654593902 1:0.125 2:0.444444 3:0.37184101 4:0 5:0 # 283;1222
-6.5904423654593902 1:0.625 2:0.111111 3:0.77436799 4:0 5:0 # 251;1276
6.5904423654593902 1:0.375 2:0.88888901 3:0.47653401 4:0.384615 5:0 # 188;1084
-6.5904423654593902 1:0.0625 2:1 3:0.117329 4:0.038461499 5:0 # 257;1038
6.5904423654593902 1:0.125 2:0.111111 3:0.47653401 4:0.384615 5:0.2 # 188;1281
-6.5904423654593902 1:0.1875 2:0.33333299 3:0.93140799 4:0.80769199 5:0.89999998 # 135;1317
6.5904423654593902 1:0.4375 2:1 3:0.55956697 4:0.19230799 5:0 # 273;1293
-6.5904423654593902 1:0.0625 2:0.88888901 3:0.070397101 4:0 5:0 # 233;1004
6.5904423654593902 1:0.1875 2:0.88888901 3:0.26534301 4:0.23076899 5:0.2 # 259;1084
-6.5904423654593902 1:0.4375 2:0.111111 3:0.79602897 4:0.23076899 5:0 # 137;1035
6.5904423654593902 1:0.3125 2:1 3:0.53610098 4:0.19230799 5:0 # 156;1057
-6.5904423654593902 1:0.0625 2:1 3:0.117329 4:0.038461499 5:0 # 257;1039
6.5904423654593902 1:0.25 2:0.444444 3:0.45667899 4:0.5 5:0.30000001 # 300;1222
-6.5904423654593902 1:0.1875 2:0.111111 3:0.64981902 4:0.69230801 5:0.60000002 # 182;1234
6.5904423654593902 1:0.4375 2:1 3:0.631769 4:0.076923102 5:0 # 203;1013
-6.5904423654593902 1:0.0625 2:1 3:0.117329 4:0.038461499 5:0 # 257;1285
6.5904423654593902 1:0.4375 2:0.111111 3:0.33032501 4:0.23076899 5:0.30000001 # 268;1281
-6.5904423654593902 1:0.4375 2:0.111111 3:0.79602897 4:0.23076899 5:0.1 # 137;1277
6.5904423654593902 1:0.25 2:1 3:0.26534301 4:0.23076899 5:0.2 # 259;1057
-6.5904423654593902 1:0.0625 2:1 3:0.117329 4:0.038461499 5:0 # 257;1288
6.5904423654593902 1:0.1875 2:0.444444 3:0.467509 4:0.384615 5:0.1 # 211;1222
-6.5904423654593902 1:0.125 2:1 3:0.117329 4:0.038461499 5:0 # 257;1286
6.5904423654593902 1:0.5 2:0.88888901 3:0.57220203 4:0.076923102 5:0.1 # 275;1081
-6.5904423654593902 1:0.25 2:0.111111 3:0.68230999 4:0.57692301 5:0.60000002 # 126;1035
6.5904423654593902 1:0.1875 2:0.88888901 3:0.35559601 4:0.23076899 5:0.1 # 247;1084
-6.5904423654593902 1:0.125 2:1 3:0.117329 4:0.038461499 5:0 # 257;1287
6.5904423654593902 1:0.1875 2:0.444444 3:0.47653401 4:0.384615 5:0.1 # 188;1222
-6.5904423654593902 1:0.625 2:0.444444 3:0.93140799 4:0.80769199 5:0.89999998 # 135;1073
6.5904423654593902 1:0.375 2:1 3:0.35559601 4:0.23076899 5:0.1 # 247;1057
-6.5904423654593902 1:0.125 2:1 3:0.117329 4:0.038461499 5:0 # 257;1289
6.5904423654593902 1:0.1875 2:0.111111 3:0.37364599 4:0.46153799 5:0.1 # 172;1277
-6.5904423654593902 1:0.625 2:0.444444 3:0.93140799 4:0.80769199 5:0.89999998 # 135;1074
6.5904423654593902 1:0.375 2:1 3:0.35920599 4:0.346154 5:0 # 202;1013
-6.5904423654593902 1:0.0625 2:0.88888901 3:0.070397101 4:0 5:0 # 233;1005
6.5904423654593902 1:0.375 2:0.444444 3:0.43682301 4:0.23076899 5:0.2 # 261;1222
-6.5904423654593902 1:0.4375 2:0.111111 3:0.77436799 4:0.26923099 5:0.2 # 130;1276
6.5904423654593902 1:0.1875 2:1 3:0.42960301 4:0.23076899 5:0 # 192;1013
-6.5904423654593902 1:0.0625 2:0.88888901 3:0.0397112 4:0.038461499 5:0 # 299;1284
6.5904423654593902 1:0.25 2:0.111111 3:0.37364599 4:0.46153799 5:0.40000001 # 172;1067
-6.5904423654593902 1:0.1875 2:0.111111 3:0.68592101 4:0.65384603 5:0.30000001 # 195;1035
6.5904423654593902 1:0.3125 2:1 3:0.46570399 4:0.19230799 5:0 # 119;1013
-6.5904423654593902 1:0.0625 2:0.88888901 3:0.070397101 4:0 5:0 # 233;1007
6.5904423654593902 1:0.3125 2:0 3:0.42960301 4:0.23076899 5:0.1 # 192;1283
-6.5904423654593902 1:0.25 2:0 3:0.79783398 4:0.30769199 5:0.30000001 # 229;1001
6.5904423654593902 1:0.3125 2:1 3:0.43682301 4:0.23076899 5:0 # 261;1013
-6.5904423654593902 1:0.0625 2:0.88888901 3:0.0397112 4:0.038461499 5:0 # 299;1285
6.5904423654593902 1:0.3125 2:0.88888901 3:0.35559601 4:0.19230799 5:0.1 # 247;1081
-6.5904423654593902 1:0.5625 2:0.444444 3:0.93140799 4:0.80769199 5:0.89999998 # 135;1072
6.5904423654593902 1:0.25 2:0.444444 3:0.32491001 4:0.076923102 5:0 # 201;1222
-6.5904423654593902 1:0.0625 2:0.88888901 3:0.070397101 4:0 5:0 # 233;1008
6.5904423654593902 1:0.25 2:0.444444 3:0.61191303 4:0.5 5:0.30000001 # 124;1222
-6.5904423654593902 1:0.3125 2:0.111111 3:0.61010802 4:0.615385 5:0.30000001 # 256;1278
6.5904423654593902 1:0.6875 2:1 3:0.53610098 4:0.115385 5:0 # 156;1293
-6.5904423654593902 1:0.0625 2:0.88888901 3:0.070397101 4:0 5:0 # 233;1009
6.5904423654593902 1:0.375 2:0.111111 3:0.42418799 4:0.076923102 5:0 # 131;1067
-6.5904423654593902 1:0.5 2:0 3:0.77436799 4:0 5:0 # 251;1001
6.5904423654593902 1:0.1875 2:1 3:0.49458501 4:0.076923102 5:0 # 214;1057
-6.5904423654593902 1:0.0625 2:0.88888901 3:0.070397101 4:0 5:0 # 233;1010
6.5904423654593902 1:0.25 2:0.444444 3:0.49458501 4:0.076923102 5:0 # 214;1222
-6.5904423654593902 1:0.25 2:0.111111 3:0.87545103 4:0.30769199 5:0 # 223;1278
6.5904423654593902 1:0.375 2:0.444444 3:0.55595702 4:0.46153799 5:0.40000001 # 142;1222
-6.5904423654593902 1:0.0625 2:0.88888901 3:0.0397112 4:0.038461499 5:0 # 299;1286
6.5904423654593902 1:0.25 2:0.444444 3:0.68230999 4:0.5 5:0.40000001 # 126;1222
-6.5904423654593902 1:0.375 2:0.111111 3:0.79783398 4:0.30769199 5:0.30000001 # 229;1278
6.5904423654593902 1:0.25 2:0.444444 3:0.53610098 4:0.19230799 5:0 # 156;1222
-6.5904423654593902 1:0.375 2:0.111111 3:0.61191303 4:0.53846198 5:0.30000001 # 124;1233
6.5904423654593902 1:0.25 2:0.33333299 3:0.59927797 4:0.23076899 5:0.1 # 258;1319
-6.5904423654593902 1:0.125 2:1 3:0.117329 4:0.038461499 5:0 # 257;1290
6.5904423654593902 1:0.25 2:0 3:0.631769 4:0.076923102 5:0.1 # 203;1318
-6.5904423654593902 1:0.3125 2:0.111111 3:0.86101103 4:0.23076899 5:0 # 249;1035
6.5904423654593902 1:0.25 2:0.88888901 3:0.33032501 4:0.26923099 5:0 # 268;1081
-6.5904423654593902 1:0.25 2:0.111111 3:0.71660602 4:0.53846198 5:0.30000001 # 118;1276
6.5904423654593902 1:0.375 2:0.444444 3:0.70577598 4:0.346154 5:0.40000001 # 125;1222
-6.5904423654593902 1:0.125 2:1 3:0.117329 4:0.038461499 5:0 # 257;1291
6.5904423654593902 1:0.3125 2:0.111111 3:0.35920599 4:0.346154 5:0 # 202;1281
-6.5904423654593902 1:0.4375 2:0 3:0.45667899 4:0.53846198 5:0.40000001 # 300;1283
6.5904423654593902 1:0.125 2:0.88888901 3:0.17148 4:0.23076899 5:0.1 # 290;1084
-6.5904423654593902 1:0.0625 2:0.88888901 3:0.070397101 4:0 5:0 # 233;1011
6.5904423654593902 1:0.3125 2:0.111111 3:0.37364599 4:0.42307699 5:0.2 # 172;1281
-6.5904423654593902 1:0.25 2:0.111111 3:0.68230999 4:0.57692301 5:0.2 # 126;1233
6.5904423654593902 1:0.3125 2:0.33333299 3:0.45667899 4:0.46153799 5:0.2 # 300;1319
-6.5904423654593902 1:0.3125 2:0.111111 3:0.86101103 4:0.23076899 5:0 # 249;1067
6.5904423654593902 1:0.25 2:0.444444 3:0.71660602 4:0.5 5:0.30000001 # 118;1222
-6.5904423654593902 1:0.0625 2:0.88888901 3:0.0397112 4:0.038461499 5:0 # 299;1288
6.5904423654593902 1:0.5 2:0.444444 3:0.37364599 4:0.384615 5:0.2 # 172;1222
-6.5904423654593902 1:0.4375 2:0 3:0.776173 4:0.076923102 5:0.1 # 212;1283
6.5904423654593902 1:0.25 2:0.88888901 3:0.42418799 4:0.076923102 5:0 # 131;1084
-6.5904423654593902 1:0.125 2:1 3:0.117329 4:0.038461499 5:0 # 257;1292
6.5904423654593902 1:0.375 2:0.111111 3:0.49458501 4:0.076923102 5:0 # 214;1234
-6.5904423654593902 1:0.5625 2:0 3:0.69133598 4:0 5:0 # 209;1318
6.5904423654593902 1:0.1875 2:0.33333299 3:0.61191303 4:0.53846198 5:0.40000001 # 250;1319
-6.5904423654593902 1:0.125 2:0.111111 3:0.64981902 4:0.69230801 5:0.60000002 # 182;1278
6.5904423654593902 1:0.1875 2:0.111111 3:0.45667899 4:0.5 5:0.30000001 # 300;1281
-6.5904423654593902 1:0.3125 2:0.111111 3:0.61191303 4:0.57692301 5:0.2 # 250;1276
6.5904423654593902 1:0.3125 2:0.111111 3:0.631769 4:0.076923102 5:0.1 # 203;1234
-6.5904423654593902 1:0.375 2:0.111111 3:0.79602897 4:0.23076899 5:0 # 137;1067
6.5904423654593902 1:0.25 2:0 3:0.48014399 4:0.346154 5:0.2 # 132;1001
-6.5904423654593902 1:0.125 2:0.111111 3:0.64981902 4:0.69230801 5:0.60000002 # 182;1281
6.5904423654593902 1:0.25 2:0.111111 3:0.467509 4:0.384615 5:0.1 # 211;1067
-6.5904423654593902 1:0.0625 2:0.88888901 3:0.0397112 4:0.038461499 5:0 # 299;1289
6.5904423654593902 1:0.1875 2:0.33333299 3:0.77436799 4:0.23076899 5:0 # 130;1319
-6.5904423654593902 1:0.4375 2:0.111111 3:0.55595702 4:0.5 5:0.40000001 # 142;1233
6.5904423654593902 1:0.1875 2:1 3:0.17148 4:0.23076899 5:0.1 # 290;1057
-6.5904423654593902 1:0.0625 2:0.88888901 3:0.0397112 4:0.038461499 5:0 # 299;1290
6.5904423654593902 1:0.25 2:0.33333299 3:0.61191303 4:0.46153799 5:0.2 # 124;1319
-6.5904423654593902 1:0.4375 2:0.444444 3:0.93140799 4:0.80769199 5:0.89999998 # 135;1201
6.5904423654593902 1:0.375 2:0.33333299 3:0.57220203 4:0.076923102 5:0 # 275;1319
-6.5904423654593902 1:0.25 2:0 3:0.79602897 4:0.23076899 5:0 # 137;1001
6.5904423654593902 1:0.4375 2:0.444444 3:0.50541502 4:0.038461499 5:0 # 105;1222
-6.5904423654593902 1:0.0625 2:0.88888901 3:0.0397112 4:0.038461499 5:0 # 299;1291
6.5904423654593902 1:0.3125 2:0.33333299 3:0.70577598 4:0.346154 5:0.40000001 # 125;1319
-6.5904423654593902 1:0.3125 2:0.111111 3:0.86101103 4:0.23076899 5:0.2 # 249;1276
6.5904423654593902 1:0.0625 2:0.88888901 3:0.17148 4:0.23076899 5:0 # 290;1039
-6.5904423654593902 1:0.0625 2:0.88888901 3:0.0397112 4:0.038461499 5:0 # 299;1292
6.5904423654593902 1:0.3125 2:0.111111 3:0.48014399 4:0.30769199 5:0.1 # 132;1277
-6.5904423654593902 1:0.4375 2:0.111111 3:0.55595702 4:0.5 5:0.40000001 # 142;1234
6.5904423654593902 1:0.5625 2:0.444444 3:0.42960301 4:0.153846 5:0.1 # 192;1222
-6.5904423654593902 1:0.5 2:0.111111 3:0.776173 4:0.076923102 5:0.1 # 212;1233
6.5904423654593902 1:0.3125 2:0.111111 3:0.467509 4:0.384615 5:0.30000001 # 211;1234
-6.5904423654593902 1:0.4375 2:0.444444 3:0.95487398 4:0.76923102 5:0.89999998 # 287;1073
6.5904423654593902 1:0.3125 2:0 3:0.55956697 4:0.19230799 5:0.2 # 273;1001
-6.5904423654593902 1:0.0625 2:0.88888901 3:0.0397112 4:0.038461499 5:0 # 299;1293
6.5904423654593902 1:0.25 2:0.444444 3:0.75090301 4:0.65384603 5:0.40000001 # 205;1222
-6.5904423654593902 1:0.25 2:0 3:0.77436799 4:0.26923099 5:0.1 # 130;1001
6.5904423654593902 1:0.1875 2:1 3:0.29061401 4:0.115385 5:0 # 198;1039
-6.5904423654593902 1:0.4375 2:0.444444 3:0.95487398 4:0.76923102 5:0.89999998 # 287;1074
6.5904423654593902 1:0.125 2:0.111111 3:0.62454897 4:0.384615 5:0.1 # 116;1277
-6.5904423654593902 1:0.4375 2:0.444444 3:0.95487398 4:0.76923102 5:0.89999998 # 287;1201
6.5904423654593902 1:0.3125 2:0 3:0.37364599 4:0.46153799 5:0.30000001 # 172;1318
-6.5904423654593902 1:0.0625 2:0.88888901 3:0.070397101 4:0 5:0 # 233;1012
6.5904423654593902 1:0.4375 2:0.33333299 3:0.48014399 4:0.30769199 5:0.1 # 132;1319
-6.5904423654593902 1:0.375 2:0.111111 3:0.77436799 4:0.26923099 5:0.30000001 # 130;1234
6.5904423654593902 1:0.1875 2:1 3:0.29061401 4:0.115385 5:0 # 198;1057
-6.5904423654593902 1:0.0625 2:0.88888901 3:0.070397101 4:0 5:0 # 233;1013
6.5904423654593902 1:0.25 2:0 3:0.47653401 4:0.384615 5:0.1 # 188;1001
-6.5904423654593902 1:0.375 2:0.111111 3:0.77436799 4:0.26923099 5:0.30000001 # 130;1278
6.5904423654593902 1:0.3125 2:1 3:0.32491001 4:0.076923102 5:0 # 201;1039
-6.5904423654593902 1:0.125 2:1 3:0.117329 4:0.038461499 5:0 # 257;1293
6.5904423654593902 1:0.375 2:0.33333299 3:0.62454897 4:0.384615 5:0.2 # 116;1319
-6.5904423654593902 1:0.1875 2:0.111111 3:0.87545103 4:0.30769199 5:0 # 223;1276
6.5904423654593902 1:0.1875 2:0.88888901 3:0.229242 4:0.115385 5:0 # 133;1081
-6.5904423654593902 1:0.375 2:0.33333299 3:0.75090301 4:0.73076898 5:0.60000002 # 205;1315
6.5904423654593902 1:0.3125 2:0.111111 3:0.67869997 4:0.038461499 5:0 # 232;1277
-6.5904423654593902 1:0.5 2:0 3:0.55956697 4:0.23076899 5:0.1 # 273;1283
6.5904423654593902 1:0.125 2:0 3:0.62454897 4:0.384615 5:0.40000001 # 116;1283
-6.5904423654593902 1:0.1875 2:0.111111 3:0.87545103 4:0.30769199 5:0 # 223;1277
6.5904423654593902 1:0.375 2:0.444444 3:0.64981902 4:0.65384603 5:0.2 # 182;1222
-6.5904423654593902 1:0.1875 2:1 3:0.15523501 4:0 5:0 # 240;1004
6.5904423654593902 1:0.4375 2:0.111111 3:0.57220203 4:0.076923102 5:0.1 # 275;1277
-6.5904423654593902 1:0.25 2:0 3:0.77436799 4:0.26923099 5:0.30000001 # 130;1318
6.5904423654593902 1:0.3125 2:1 3:0.29963899 4:0.038461499 5:0 # 266;1057
-6.5904423654593902 1:0.1875 2:1 3:0.15523501 4:0 5:0 # 240;1006
6.5904423654593902 1:0.375 2:0.111111 3:0.47653401 4:0.384615 5:0.40000001 # 188;1277
-6.5904423654593902 1:0.375 2:0.33333299 3:0.75090301 4:0.73076898 5:0.60000002 # 205;1317
6.5904423654593902 1:0.3125 2:0.111111 3:0.59927797 4:0.23076899 5:0.1 # 258;1234
-6.5904423654593902 1:0.25 2:0 3:0.77436799 4:0.26923099 5:0.30000001 # 130;1283
6.5904423654593902 1:0.1875 2:0.33333299 3:0.76534301 4:0.5 5:0.1 # 121;1319
-6.5904423654593902 1:0.125 2:0.111111 3:0.64981902 4:0.69230801 5:0.2 # 182;1276
6.5904423654593902 1:0.375 2:0.111111 3:0.48014399 4:0.346154 5:0.2 # 132;1234
-6.5904423654593902 1:0.4375 2:0 3:0.75631797 4:0 5:0 # 170;1001
6.5904423654593902 1:0.625 2:0.444444 3:0.87545103 4:0.23076899 5:0.5 # 223;1222
-6.5904423654593902 1:0.1875 2:1 3:0.15523501 4:0 5:0 # 240;1007
6.5904423654593902 1:0.3125 2:0 3:0.47653401 4:0.346154 5:0.1 # 188;1318
-6.5904423654593902 1:0.1875 2:0 3:0.70577598 4:0.42307699 5:0.30000001 # 125;1283
6.5904423654593902 1:0.25 2:1 3:0.229242 4:0.115385 5:0 # 133;1013
-6.5904423654593902 1:0.1875 2:1 3:0.15523501 4:0 5:0 # 240;1008
6.5904423654593902 1:0.375 2:0.33333299 3:0.87545103 4:0.26923099 5:0.60000002 # 223;1319
-6.5904423654593902 1:0.125 2:0.111111 3:0.64981902 4:0.69230801 5:0.30000001 # 182;1035
6.5904423654593902 1:0.25 2:1 3:0.149819 4:0.23076899 5:0 # 277;1057
-6.5904423654593902 1:0.1875 2:1 3:0.15523501 4:0 5:0 # 240;1010
6.5904423654593902 1:0.375 2:0.111111 3:0.53610098 4:0.19230799 5:0 # 156;1277
-6.5904423654593902 1:0.5625 2:0.111111 3:0.69133598 4:0 5:0 # 209;1278
6.5904423654593902 1:0.5625 2:0.33333299 3:0.33032501 4:0.23076899 5:0 # 268;1319
-6.5904423654593902 1:0.125 2:0.111111 3:0.64981902 4:0.69230801 5:0.2 # 182;1277
6.5904423654593902 1:0.5625 2:0.444444 3:0.69133598 4:0.153846 5:0 # 189;1222
-6.5904423654593902 1:0.5625 2:0.111111 3:0.69133598 4:0 5:0 # 209;1281
6.5904423654593902 1:0.3125 2:0.111111 3:0.45667899 4:0.5 5:0.30000001 # 300;1067
-5.4699956427542701e-013 1:0.375 2:0.444444 3:0.95487398 4:0.76923102 5:0.89999998 # 287;1072
6.3711543837985502e-014 1:0.375 2:0.33333299 3:0.68230999 4:0.5 5:0.40000001 # 126;1319
